784,16,16,10
0,214927640029427
-0,3798928022664926
-0,28315504737750297
-0,3295684974468023
-0,0810945685360378
-0,034551605603142965
0,3527101797671811
0,4313018386684224
0,056777336183641
-0,4444474786470156
0,3292561675697704
-0,2906449108468202
0,4976273390124121
-0,329819010125457
-0,2383882199991353
0,23932900594455253
-0,003608415480076843
-0,4850289941762911
0,4431043140977723
0,441190064903747
-0,2531034326047005
0,30476192027690885
-0,03457986977660421
0,15847238046098067
-0,3585707808630231
0,1312396252183009
-0,04880413403642514
0,37858963791175937
-0,07616046500855167
-0,25737133415572055
0,34539905267346516
-0,353844565164391
-0,17337778357448652
0,05646056105168851
-0,164385064215818
0,16798869898191415
-0,014874635251784896
0,04020988919476698
-0,42923611577805665
-0,17220061907838102
-0,44935163392326083
-0,25155151767128126
-0,40444984360832226
0,30523607606067304
-0,08161988524609876
0,2476640421392935
-0,2680526541608347
0,36466818190358985
0,08478920927953626
-0,48570581261798684
0,1056041802501414
-0,3865290627999354
0,36658137441353633
0,04613800845829297
0,05861921445404905
-0,13509324445426585
-0,13997396759354286
-0,3716631415205608
-0,2763560454847447
0,19733152735995751
0,39570893745616875
0,245418176088682
0,08525866140627791
0,12700444261731136
-0,252824777006451
0,1997275430269695
0,4627150174288307
0,3572431264258188
0,11979347445149113
-0,18212764878374066
-0,45009371526832764
-0,2779514011462856
-0,4165773499186253
0,17261689816380477
0,4557333976467094
-0,22087494480038383
0,2880713815098985
-0,055902405097962515
-0,3345232720870477
-0,010816314547214656
-0,47319085728351173
0,2461224998197269
-0,48862361675848
-0,034245159807655856
-0,08301094959373256
-0,20116223530188704
0,3992417294445867
-0,20898704813836477
0,22563330360512546
-0,4011154881050737
0,020303520113364337
-0,42228798656245403
-0,2856276110441667
-0,05549397132987233
0,48289630576435005
0,14343108636617474
0,398487833050416
-0,29847376943985016
-0,022897043252236737
0,13221101775184396
-0,4180544424496617
0,2069203281373464
-0,13041171959358933
0,1495587726382045
0,08842780559538355
0,31897791619990756
0,424619979630806
-0,2237146036392571
-0,4266272795152538
0,4243460469593787
-0,46236175684653325
0,4608610984030247
0,1961039712960534
0,33796945087439123
0,43518244847228227
-0,30712156871893537
-0,38537676143338007
0,35233996017684277
-0,31780081330137544
0,4085009798813133
-0,3688454958776499
0,2390449208265163
0,18194531926769653
0,1091319447503536
-0,36366000107183605
-0,31625480501219394
0,498960745232054
-0,23783402677916143
-0,1633146616107184
0,3073744082689034
0,17717588525205097
0,10240558169582037
-0,44084349337416584
0,05789429616846253
-0,12083889791222302
-0,02426405597470005
0,352220794043547
0,4508984579650196
0,40160900541697775
-0,45717035374778137
-0,17272168802951693
0,00969343806791656
-0,14702801040823466
0,26034968684041226
0,18211917941922406
-0,3775801198959865
0,4765814096512284
-0,36064423566545734
0,42896754745363297
-0,19997785625956532
-0,02826011095619796
0,29601858432199823
-0,13445442497654003
0,0857404002681722
-0,20498905035299275
-0,014907398359454094
-0,4619255141037727
0,3995662807778416
-0,24704610886758238
0,43879282284577115
0,3366648726627779
0,07275250308821712
0,3517882735973391
-0,3563577032329317
0,37836434535848085
-0,2596773107686561
0,4524102956554288
-0,12357613156373148
0,23480669303814705
0,23024749365791197
0,490692550122408
-0,4150343217037211
-0,23980671626621464
0,4522156868039492
-0,20966236033841912
0,14375357987389104
-0,4787358171487004
-0,32311148131379885
0,08596326265625776
0,046050454526839646
0,3481094813031774
0,4615937686517674
0,4600690391285124
0,04245190694575407
0,3042288730640037
0,4689207369448848
-0,4477312405664088
-0,08971306806467472
0,05075623757075898
0,38273628122376435
-0,12033368936972555
-0,26892427442489353
-0,4090562024777817
0,48438666227184357
0,09275873821115377
0,4712056301930356
0,06568712853117582
-0,11987245119445929
-0,01886473249752926
-0,1031470571557506
0,4572033144840409
-0,3305005441586695
0,1618995196381123
-0,5011491201631854
-0,051985775090992684
0,30656310235425366
0,3888196770145691
0,23711404985089624
-0,05033954533137806
-0,41859081035533047
0,24082603468228597
0,0929561563154105
0,018003343494205105
0,1186277215053094
-0,19087971537543363
-0,32393578278756413
-0,1178176833804394
0,16995217292386702
-0,07129443714848067
-0,4289577277868573
0,17021433879999495
0,30469455860832995
0,4792718462581692
0,3108818503984989
0,35148832845676486
0,424678893158637
0,13551604780327886
0,2427814840074846
-0,08716923474137951
-0,22453438021041966
-0,08392334719018718
0,39700425612891477
0,45779416218547186
0,028114980177375237
0,2043943540887845
-0,3450878662018371
-0,12058243606256336
-0,3692511066895882
-0,19649356220817144
0,30372368522947474
0,1083061109919568
0,2623836344262598
0,2868168854066505
0,231459713887311
0,2925784064245191
0,2616517906356138
0,38115600286368906
0,4347511899145675
0,13816160616809042
-0,38581605649134465
-0,1755531556641826
0,2574682464865828
0,2724752942603057
0,022781359894092697
-0,008292721140664896
-0,4903764931575191
0,16740291607408042
0,11569123475674814
-0,14113063637841528
0,2924728700246103
-0,3877853321448518
-0,4562111440514566
0,34578224832735316
0,18121848464459844
-0,011966819213369284
-0,32934977697843126
-0,3914569268877035
0,4060524807546755
-0,2546354530855395
-0,01755626074932959
0,26622091817229976
-0,23927477110210782
0,1735281004728112
-0,13072760020064667
0,3112883177542006
-0,4471705325864449
-0,11947904978737212
-0,051214407485968616
-0,43077633456072106
-0,1631149084057668
-0,35997738525674927
0,2789727577204526
0,2257634074160414
-0,28815824460389305
-0,03915430814673693
0,2100532486214136
0,08569677527887154
-0,05149111179046484
0,3427747974577927
-0,27586878787277536
0,026674861145212447
-0,32625509339636316
-0,06037648925101946
-0,1812224593222309
0,35984947452453964
0,3650527745592813
-0,3905289933425883
-0,3240241027425378
0,0993700547990567
0,4368824847414974
-0,005890631692012316
-0,43461692825002995
-0,12334717941186124
-0,4564315570707932
-0,4817081434994178
0,43310572641774503
-0,13894825572310776
-0,28758377700206095
0,4079082445495257
-0,05717815066293053
0,2702980120555123
0,19877276429525026
-0,25174036620362816
0,2046355727445971
-0,3876390599376365
0,12245088198663323
0,07783725124132423
0,007188882279649977
-0,14358425727224022
-0,24444802438681767
0,13996917898623562
0,18063252027681365
0,1381556830654701
-0,12997451025877427
-0,07405277979924507
0,03945669777331462
0,24747258916248915
-0,31308748385423024
-0,24539945644958383
0,3901761372098782
-0,020539233263390022
0,1793824778016061
0,27497085108898733
-0,2943033832450679
-0,0751542674128739
0,46217927428684535
0,3335819153975582
0,21065353663682174
-0,4816286965168515
0,47680421035428855
-0,2180515661580208
0,04171723880821565
0,03267897427897892
-0,1281131552635656
-0,40054378873463403
0,21768537640146812
0,23069334084705828
-0,2273715666276922
-0,47833311723406013
0,04543401662728486
-0,4727313558942089
0,07248063056183074
0,1007405168575859
0,15789452323390352
0,4066830109234788
-0,4406998439220944
0,3896853496100281
0,1827998002262049
0,2565776779199428
0,08314651869142131
0,021738985549282774
0,04893305032373241
0,0038162482923930208
-0,2803480822151595
-0,4433310971409916
-0,18439192130569815
-0,21320516889500385
-0,24677036872902502
-0,433399664055779
-0,21720656120701864
-0,4595995064153704
-0,0730456187601708
0,2603542073636038
0,01954551844024288
0,4236396017430951
-0,2585011202677172
0,04404440438352486
-0,2774288229711751
0,15809885125359857
-0,12059208738180749
-0,3239189831310211
0,11561236866880464
-0,17285843698375025
0,4385430787944614
0,4209339201907828
-0,48890684819275676
0,1445624354458015
0,35773053749892414
-0,3195140716943168
0,10107301326402984
-0,3665088313906768
-0,33573510250160266
-0,06515195013504194
0,3662513345962446
0,13472068019075045
-0,3355562262922751
-0,17333778576354308
0,421253961630938
-0,42683238397644385
0,14592974979559437
0,3103501282108655
-0,08129995177843408
-0,4422716059282127
0,4518505212380187
0,24677847753938842
0,06719524575526792
-0,3430464606534184
0,3729941899627637
0,30876224131787977
0,30308322097865303
-0,07727369309158338
-0,18013326536786933
0,36742397559537265
-0,3588543046080439
0,06470693099203306
0,0507931554154577
-0,40726116550342084
0,10241087211947886
-0,27321627323225206
0,47980981744233686
0,4131354644373523
0,3551917598279869
-0,3473516288016758
-0,08931248193317931
-0,31827040333164736
-0,29923862064622575
0,1281608106390777
-0,06353502242664322
-0,17577209529286075
-0,248603412702033
0,13165886039739472
0,20740325749615485
-0,28815867155523534
-0,3997574340296085
-0,26000479015079014
-0,20721109912320823
0,468555557361637
-0,07084632898933141
-0,4756351978126362
-0,44043778434731695
0,4547105491901212
-0,4114519534968124
0,09094934789844733
0,22465370402052376
-0,4760959942973234
-0,35784880610153125
-0,4808667262509768
0,15473735714059522
-0,04193115950734083
0,3010608494213808
0,4981591290971291
-0,2432709724667017
-0,02882521516922487
0,26672744950374305
0,4890017332250911
-0,38919764120566835
0,09173400383960595
0,31565638247293504
-0,31946404437331843
0,1083689912064646
0,44308299331558076
0,38362697314980865
0,11947880675727629
-0,18000027975639565
-0,20486395095212595
-0,27110695498190707
-0,3685158849862108
0,4796659323880924
-0,0649122640003047
0,29493798882558653
0,45821819575462264
-0,46926942802772575
-0,4096195992786522
0,4590556824657144
0,16236865342464435
0,347977708997503
0,4663723309052932
0,22312594108838968
-0,4743238787597618
-0,01642911533178193
0,10732050590809972
-0,19958028528172267
-0,38344796772299594
0,19472489064695486
0,36507239205441067
-0,46834636093491544
-0,03736497355133428
-0,4692239629054489
0,07806592441493598
-0,2782122461054346
0,1459640276448657
0,42675954824392115
-0,2789814135178539
0,06068453990898115
-0,4436663506970475
0,3840600795605449
0,32336884162661383
0,2073687317561801
0,3460603220219908
-0,3119838775633629
-0,19208279917456605
0,084049662187474
0,4800953246243759
0,14263024741645214
0,038026748370167285
0,009225607684413384
-0,4542892019257164
0,23669913599144576
0,06249983747169008
0,1332950266548999
0,2509732232480101
-0,26161617207578913
-0,3429113626628082
-0,23856454945013994
-0,3659375675787853
0,22961021634449974
0,1530007800514392
-0,13056500830515175
-0,0060136182906280885
-0,205504536886438
-0,12011728399514905
-0,3874069163772865
-0,3286117673753317
0,24781530792968415
-0,07367948498887886
-0,43171139352483306
-0,2846269862262477
-0,21475166179736008
-0,38584734359189315
-0,44938381539948724
-0,14233917309384836
0,2347682078173934
-0,3095368383053144
0,19668539455582873
-0,42244972578460016
0,19438432548664525
0,2229615792003302
0,44605420900924525
-0,09140766743194942
0,3269508304692396
0,39004193207944454
0,17807297268660993
0,4702639827786325
-0,4654223045777158
-0,13576781322709194
0,35324895510894183
-0,1594308844479092
-0,4427884217953012
-0,10226472340605687
-0,09095247230130304
0,12045789820459281
0,11810273218984949
0,1549375616781738
0,4679489488831469
-0,2413590758980418
0,02889997206245372
-0,44585723162151975
-0,06454076901852707
-0,0594761455392495
0,054425506274306854
-0,013705053115828592
-0,15153451554031605
-0,23340092454018935
0,483581594364984
0,24818055375697262
0,12151825630859306
-0,09995378609333462
0,033997809670012674
0,4168025695254988
0,09580424341701471
0,017313298789895168
0,019147582599885058
-0,18593467778922573
-0,17843915493876392
-0,4507245818632716
-0,04193880826839301
-0,3399442496381746
0,0033243091258573867
0,2916751144415337
-0,33716355200873044
-0,09216556990620865
-0,34302661339381196
-0,24720666581052006
0,15456057093722034
0,3770268798733551
0,287224320513793
0,15790469504772017
-0,2388548456379603
0,05366084298296553
0,128045193771884
0,330887049052107
-0,25740743172657965
-0,3931185930108243
0,2702902456006253
0,36722489743169534
-0,20298397445005245
0,38313967877261823
0,16660612692627833
-0,4057398282176409
0,30600171104043594
0,2619065279261079
-0,3520509310866443
-0,29744024472425484
-0,27272949011003006
0,05755111903454754
0,28462318855192664
0,2584113342486835
0,17980886604482196
-0,38951304019875355
-0,3657499309573285
-0,005240456218817869
-0,029284384456884124
-0,42537422091170496
0,32807635340626945
0,16162271325419164
-0,2693113233171073
0,033599487549364045
-0,22624932591078506
0,39930687344509247
-0,42109909340229695
0,4762975198950198
0,4055027594818329
0,48553618738261795
0,373331074650408
0,31956063298488113
-0,08201671749374832
-0,45007260059663656
0,10884027624597795
0,4944047291423052
0,022644216937731144
0,10290404133228577
-0,3287599927761014
0,12476750311684257
-0,36796827336251653
-0,27455637626813867
-0,2928270806584346
0,0924085859787173
0,41831497910751414
-0,31855298649844516
0,20343709166797805
-0,40017349190223356
-0,20838536667938015
-0,1614652124874096
-0,41478047376201027
0,3032298097307307
-0,05077154166992849
-0,3627038659948224
-0,09000281336597057
-0,1599669745051372
-0,46605844008748165
-0,4592271402206378
-0,29326960229220705
-0,1882925643618799
-0,3115750614264848
0,29659791278176323
-0,3590675085124388
-0,4238442532780971
-0,2731608243559702
0,16810623926658233
0,17546718395544908
0,3241261646016392
-0,16083550603635807
-0,3091633894511262
-0,3795480280324212
0,2384195668251527
-0,2747479940585084
-0,20520539758109724
-0,21005087459275107
0,28602457157728806
-0,14831810187295036
0,36193846024011334
0,306509844807645
-0,17247436602080238
0,05134424794488764
0,22759550047656693
0,27673162086544223
0,2953555912476834
-0,03807866999245196
0,27731785248993684
0,37837155586438126
-0,18123885636105352
0,023593764971787282
0,09432236051090456
0,3287598872276753
0,39902324048604076
-0,028187266455865025
-0,26522789508602895
0,42184920045694074
0,3010420241958214
0,27006449802420374
0,2975587855794469
0,07936936384289191
0,2145043094517004
-0,12004651798659902
0,41942830581379625
0,3904286067016093
0,47348678727762183
-0,2724202100824199
0,19035936859289965
-0,2113323564970486
-0,3968267075533679
0,4927768401188219
-0,3346201582871222
-0,31997444733492425
-0,35124670770385
-0,44957243717085826
-0,36756750662479465
-0,24769643484635687
-0,15916165541383073
0,20705459870452964
0,3581772336635475
-0,4080439087894675
-0,11215468602312932
-0,05010575252521312
0,15143728890228628
0,005872996383677464
-0,27842103452534345
-0,09438504460215422
0,12782405047378717
-0,23266701882429575
0,05254265180359492
-0,14064647955536577
-0,41621337754215876
-0,014243926395739273
0,23517815426652514
0,45220111530376267
-0,4704417015854907
-0,14923937375347934
0,43124811549188696
-0,2994041058677902
0,21395029646935834
-0,02240255783005655
-0,1710326332608341
0,31075835878659
0,4827915244392144
0,2332191680902362
0,43398249120533916
0,3862442022926977
-0,4800367364126077
-0,12739958503019425
0,47907970821607304
-0,031734789018360424
0,38084012558894237
0,2446047581892977
0,24148955032076333
-0,010219890661168822
0,3765641396858766
0,13497818392915115
0,14680137636224103
-0,3611034945746397
0,13295779832617785
0,34138383049756965
-0,32571277472284577
-0,21057070249560797
0,317904667874436
-0,3136154625879634
-0,2214280962861001
-0,42043704996568065
0,22268375794708348
-0,08475008903548673
0,22956683636180672
0,3938573023940515
-0,1055539851224683
-0,26146513138167565
0,1144311969218688
0,4911558842211704
-0,19533622971367498
0,3499022556795507
-0,03010600383179212
-0,14762941869195284
-0,3311602624810843
0,2813860092347154
0,09012434798812055
-0,13370635479891346
-0,3968991081228697
0,3530135401697241
-0,32111676117895543
-0,1271636072379405
0,1573751774372096
0,32488041933743594
-0,17517672184051364
-0,05149544438214343
0,23932464171032575
-0,4344075693260471
-0,3802948063856859
-0,16238460042333422
0,3177979425769374
-0,4493212924619377
0,4451479962830701
-0,35155491557214746
0,38983987588034896
-0,4111747266594031
-0,4637140891297654
0,22377279351550833
-0,12670729342548195
-0,27319690691800846
-0,2728500570956537
-0,13275153726401034
0,34511850083506757
-0,4230918800831482
0,3983563801786913
0,09767553025966304
0,19342807220558725
0,4142629538215417
-0,041793000706114046
-0,07967601358652433
-0,14112651589040193
0,4912172705929971
0,14579130866223547
-0,45325593971811623
0,14018042653657262
-0,3170302473064947
0,012312359661618638
0,17800948032230313
-0,16727585662485267
0,09883270782745805
0,4912311166066521
0,4359636495613456
0,34266541843240694
0,49636853613628107
0,4953198987399795
0,3217351772417518
0,3177551531170917
0,49935739568821524
0,33256975940260786
0,1331743540977771
0,33085003897096543
0,486246711547543
0,32801363112164234
-0,2985597934573383
-0,24340015724755057
0,3840482887649942
0,4423333302615524
-0,30767679689935623
-0,23903035733499012
0,2444658533035099
0,3860991234709742
0,25035762274351947
0,27509485139919887
-0,2994025600360226
-0,19782154776120875
-0,02383780929971302
-0,38583472694328913
-0,023488629517274262
-0,052737160286807194
0,47997672917388756
-0,045090375229935975
-0,04057720986792368
0,07712932970451636
-0,15479654186708025
-0,1500847541227509
0,3434500226021642
0,49101252346626334
0,1970784671373913
-0,08155110295925405
-0,40610617462871357
-0,3982940843699475
-0,12493695812109018
0,4067404616995527
-0,02768528577701379
-0,08341111352506703
-0,30305691254739797
0,2247069340116683
0,40359474663925066
0,39009762125123004
-0,2293069366532946
0,3836692890228537
0,1051097459616902
-0,131732981026219
-0,07233919329497407
-0,071953907580799
0,1400596587656474
0,22992411016463565
0,4497414283763793
-0,41856013704817663
0,2703039264630188
0,12007471541148595
-0,3024367115842713
0,3450611496859297
0,1176942150030742
-0,0878456294408878
0,259839458643093
0,48622750338562304
-0,4574646608131846
-0,29059055971889114
0,3800741782366721
0,45545128054485695
0,034546571132845316
0,14122120017020523
-0,48798810067287757
0,35315881350178335
-0,030962571175144116
0,006385509205153572
-0,47503133277853515
0,01862368211604537
-0,24310711557049602
-0,2368024434808319
-0,24692952371739108
0,46456406758984103
-0,022015131282016598
-0,09647256881962474
-0,2749195270233783
-0,15419687263139603
-0,14285843003233423
-0,08385106739003512
0,3521985295061105
-0,255961080252065
-0,067871172221186
0,1154440664436921
-0,06489863823898967
0,37684177163107535
0,21199266759184376
-0,2618950714969812
0,4344869588462503
-0,28945486191571823
-0,1061513529776088
0,18439041430365877
0,17467556255068883
0,2793265220305021
0,47496806560142224
0,4228018753006847
0,15811262234490875
0,33582515459677365
0,2147548278812258
-0,48488913102809195
-0,019593905786673194
0,055871595369113014
-0,4600661986279566
-0,4478729238427448
0,24760139726294234
-0,3047236910778693
-0,07315748504326958
0,39146525334334403
0,24989698322480672
-0,39382778572824
0,05678105732276726
0,39462310662294264
-0,03132996695982284
-0,3638004859608463
0,12698223900697697
0,3986464323802008
0,01863446745133759
-0,25781250234452313
-0,4471308758532012
0,45846611465558823
-0,03680979897917895
0,4601123511866992
-0,26755109034371516
0,01672587521272915
0,290417213114696
0,47406962425101734
0,40936336902089615
0,1988258361080948
0,3977901026662664
0,1291660735164568
-0,27597611425116564
-0,39337810711054527
-0,14702685308293073
0,27816424253951816
-0,2346972547098914
-0,29627398792466003
-0,2980024804233101
-0,3868103049151102
-0,4722994896841422
-0,38881673449150683
0,3444950404313456
-0,15203416459430957
-0,10964103618844408
0,44225388155804524
-0,43023049321548984
0,09070410187420493
-0,4773285420468845
0,40998402764086367
-0,3093726533961806
-0,3990280449457468
0,2596029244271064
-0,3690063193679665
0,329185286457475
0,024314566763943432
-0,4223233411760355
-0,4927747298198954
0,03441163609479629
-0,43867047880146043
0,010557579081496108
-0,47277855990598944
0,03865257438107351
-0,1033022629698041
0,06508441260432243
-0,4671938221746481
-0,3827575944646131
-0,004913601844134777
-0,05440189985989337
0,4908872292834663
0,37964851698975083
0,43402144208133
0,4755639136671285
0,4157409782290697
0,37482425489401905
0,21309423560446858
0,42560701561602654
0,0077939412693057795
-0,00013535091984404128
-0,3472042447988292
-0,18467262228535583
-0,35275738385238165
0,1225688838885835
-0,18002708302175807
0,2882546353000547
0,3675353340996015
-0,22322136586668925
0,15022505098150568
-0,22051482502374262
0,4238210380916383
-0,31584439591806784
-0,4622358196709517
0,35993335205055516
0,26048833727427256
0,04694470011469559
0,25068737844356714
0,3016552372769673
0,4162054000040819
-0,17298143533529292
-0,09396037267453267
0,04585897998420485
-0,30749937015581275
0,06817339817259077
0,09513007419176656
0,3289783842949619
0,32882029564099896
-0,2701864892598959
-0,04550753119636095
0,3990904957235927
-0,02231732521993079
-0,43061029941389567
-0,026947229542139337
-0,27062737170532203
-0,03553389094110673
-0,04530126032251098
-0,28117439034619035
0,46887249688231003
0,0885490095599196
0,4584566057044137
-0,23120913653281577
-0,21172999986764576
0,3129384226518277
-0,4751275989865809
-0,270661578447998
-0,43155334145217555
0,3215081840968925
0,24713772040353646
-0,24085297045729387
0,41082332411279904
0,2608493242913849
0,4562750572047218
-0,22983630304808494
-0,4549254246614794
-0,4661940105045389
0,12057297241093759
-0,11374704504580843
0,4400908449802127
-0,09796604361269654
-0,38352906139375387
0,24225196512882208
0,01894005205954764
0,38106095517526123
0,22847458295461925
0,24498455789381138
-0,06607932960777146
-0,45394371376354764
0,08246757578626697
0,14875441117826319
0,3745561118020965
0,5026576772476165
-0,09812268891208202
0,3277622976815613
0,2579756868011556
0,03783140761487086
0,23427636331623033
-0,31433176354420655
-0,27470713699449
0,3516680744567026
-0,226591381581029
-0,3857639325776964
-0,34121251081284587
-0,557900692796188
-0,1572034845393933
0,14527817154636327
0,16783536222402223
0,40654007917147145
0,3266821204192629
-0,03791148725280723
-0,23537663191352295
-0,04734445710785819
-0,36183374392563267
0,23368189432068645
0,005761748824315517
0,3267228864163746
-0,45192824063356213
-0,21337901089782196
0,06763270707290961
-0,07973909302349563
-0,06128369228476211
-0,2006112166010863
-0,31244650597489276
-0,48642024749409074
-0,22873445219101343
-0,2048337116644382
0,2542077868866217
-0,3742152998403206
-0,07840606264504892
0,48504336711413276
0,16916846487861056
0,4555962769160873
0,41635188993392636
-0,22733332987516386
-0,37903915738940686
0,1205174768982668
-0,15568860611854457
-0,29389420443942293
-0,0586614204894549
-0,2624994602471327
-0,05206321710447266
0,36210022858531554
-0,45748234091739465
0,38264326859590686
0,05194650315611147
0,3494890636332726
-0,23682176407059682
0,22944138248152984
-0,14835583109732817
0,4407118556819709
-0,1348152974116526
-0,009812710892452862
0,13059218424921182
-0,017709820386104476
0,2850981326438693
0,09979381639831317
0,018981853396590344
-0,0737791801842203
-0,035914485788949804
-0,23480645089320815
0,33935937166356656
-0,07666014058758262
0,3331214461876504
-0,4536754688360474
-0,21764590476586357
-0,16222694508116942
-0,18327874990737164
0,08860718092152957
-0,3837169144057041
0,11516130925577234
0,16417659559484096
-0,31759408089532515
0,20064078462140195
0,4120118414482922
-0,47673899164773315
0,2498102043930258
-0,2112282626526997
0,1908143162128279
0,1785799967232594
-0,09702934088648953
0,11117482060597127
-0,11266260198487597
0,0163917513748446
0,36076006849968956
-0,1286587227702392
0,29795531546952364
0,4962643498007462
-0,286641945529935
0,4542113824331089
-0,42827053632937817
-0,0410863744681655
-0,24239844987528691
0,23481121636693544
0,038261768574614455
-0,5053798925571729
0,04107688699231597
-0,30506980248633975
0,31502067573048614
-0,060611333050740866
-0,4267073524813293
-0,10414253926181964
-0,37870062322481957
0,2032704168111744
0,257607647602286
-0,1968640802996685
0,14149266955651651
-0,053308658769163776
-0,40801708980017876
-0,3918138653823903
0,449723700218206
-0,4030684272825564
-0,3836393614488456
0,030590125274556335
0,112573965738447
0,454275513761487
0,30928437061666986
0,10618190717290851
-0,05956527732814278
-0,45441217839115317
-0,08361086846637171
0,032187410377500766
-0,18859065086649082
0,19193455408831345
-0,13390585509257436
0,5319246408211411
-0,16466047171269355
-0,5097557300804398
-0,07938367285561623
-0,01775962619800689
-0,4333862720107953
0,386675792841794
-0,4270272258744352
-0,17305232938772425
-0,2391592784017891
-0,3620305055002635
0,3728427500803432
-0,17103003784134815
-0,058388480940450266
-0,47475200668961864
-0,4026457676921517
-0,011293282831218419
0,22921698686420303
-0,2718231187848799
0,45402257409228414
-0,06525373841912598
-0,17449602194829672
0,3885985795696686
0,14269522005086777
-0,28119110568787337
-0,4119333555798836
0,1649643348641604
0,06673718671958193
-0,33802283393703236
-0,4240516714493279
-0,46217281135168453
0,21997250066996318
0,5207056446738092
0,36979850602732817
-0,1966629684154188
0,4705366168768137
0,36354964260928474
-0,07305262341274787
0,4563422236528707
0,2637479481984057
0,282957829051408
-0,22418890502524857
-0,29301544149972825
0,3951681028367286
0,32532344592519236
0,3052771367666237
0,0041904879983235745
0,24393787581711593
-0,3917360461953189
0,014182384387551896
-0,061295973495548044
0,22000553155552688
-0,0083430090102323
-0,43355016131572266
-0,10953706734737044
0,0204788392043052
-0,16702659136754164
-0,09706147545235816
-0,2536440624330483
-0,3667809767180932
0,39678880707710923
-0,1620612814088484
-0,24056911593407954
0,4533953581902883
-0,10251605587271638
0,2942876242567017
-0,3096271651414113
-0,31209183811818325
0,3648330488063018
0,10949263937370812
0,1910879678265562
0,47947981415389995
-0,23186667031760633
-0,2723749780617292
0,07343119930817626
-0,19305077247812902
0,3340556600684942
0,30230604563844493
-0,4990548606807068
0,4732701127072773
-0,43369651217935307
-0,03344785745519985
-0,3503853494192536
0,45032570367588254
-0,2056199337035564
0,24418285342148552
0,4673213992568682
-0,4707563876656115
-0,39121305286453534
0,37456839592089247
0,49382375841071113
0,07809109583237042
0,3159641112653979
0,21981469941794102
0,33829332990240907
0,2853888519764781
-0,2646753363204999
-0,14584132064940866
0,28629625605799397
0,01671624089748222
0,4036723772587648
-0,47920537269233066
0,3885624886648332
0,2850554149416175
-0,07026383796055824
-0,1977829548326914
-0,3791530292324705
-0,01081923683012509
-0,10687204905615522
-0,017652237405110793
0,26694606256584164
0,22581206533831366
0,16922550226662325
0,20250304364337168
0,12134021222227354
0,2637463327684041
-0,09732429554394495
-0,27899264543354463
0,32634648273904177
-0,05271645038875572
0,2963713864976426
-0,3413627283059927
-0,48771869277328717
-0,11673989305881072
0,13277326915821996
-0,32555291497448724
0,1898913998226489
0,29274994122993847
0,33177582241268966
0,353897202721955
-0,3369260293986348
-0,4569920288388265
0,4334960416660595
0,22435230456590693
-0,0660260003485994
-0,3653256859307772
0,3235580296825681
-0,4695297826067548
0,0948881741367289
0,46646533815181057
-0,4091274735946404
0,4256812625237496
0,28610557705788664
0,31508040330991205
0,2686977495356201
0,12543208235496917
-0,3199301053913832
-0,4128350223477768
0,33822910843389153
0,28612661606218415
0,26242413062075953
-0,03584883804724148
0,2468895125177092
-0,32864614109798185
0,4720852086383124
0,2748789012249233
-0,47784429499486925
-0,3239054167111063
0,24270743020461139
-0,017629143726637708
-0,3713940624917963
0,4895131145164823
-0,4064662956893015
0,3422527154689987
0,035912467335384335
-0,27897301502931604
-0,17621156082371736
-0,23694606896174286
-0,34302357226357494
-0,21522940636677523
0,3408029666915007
0,0036418614926473415
-0,46042576506360783
0,22887897573706886
-0,2502965119999347
0,46753582509893066
0,4547407748878466
-0,27332574464025156
-0,271450685149042
0,009288819127578365
0,4050134317113117
0,18020909980508762
0,44772511277303745
0,2162295326518237
-0,42735710802417753
0,44278886966595166
0,04550792356613923
0,11230033318282265
-0,3832075425443934
-0,0491509715650819
-0,3775529832644183
-0,31387124805933675
-0,13916589964099543
0,031002716154854015
0,17724899719930712
-0,035134118461069
-0,01675957012570921
0,4079910675436827
0,48010104948578985
0,4307052166563217
-0,121268635549543
-0,28509846696258506
0,2228300039792024
0,0141838426044432
-0,11608640053718942
0,3851445215491185
-0,44450682785387463
-0,42488894061002713
-0,045079569477346225
-0,22864624810562476
0,3985793590293078
-0,048676152439036925
0,370972993699153
-0,39672020891434007
-0,0845637922049216
-0,07445385808918883
0,08828079208001219
-0,3583088328407311
0,00912093547014209
0,3834402175087151
-0,4439921506839889
0,4321017110360231
0,32363106836309125
-0,012190372016361537
0,393008518321868
0,3462885618557215
0,21886425511689517
0,14594410043824657
-0,07220304257735938
-0,3633230409919757
-0,36407523263569747
0,4307721555938264
-0,24558648751592524
-0,03640221590852755
-0,20042765447948638
0,1267074161762821
-0,39048402988773984
0,0003859416736653179
0,38481504774937614
0,12975390074656584
-0,3299371170920091
0,47552018176074806
0,3957765429261964
0,1785585391644338
0,2395237934765902
-0,1598013304779317
0,43198057940515405
-0,2381262472241684
0,3319762249422767
-0,3748201427322026
0,3496141889921385
0,3154408106362533
0,15155634156509065
0,030102416767044653
-0,48257475562743324
-0,08681574697270815
-0,3713976787178463
-0,09791078134667233
0,25007626592911814
0,16133298189274237
0,22762186783290084
-0,15242352902680834
0,24155789875505648
-0,18979086481541235
-0,18856646248020018
-0,3560651676337466
-0,39255920382724085
-0,40755287971979837
-0,33870838185425917
-0,0656401691966515
0,3528227130691328
-0,2605794379741596
-0,003714764913818551
0,3852045573223021
-0,04989332203852798
-0,15469348761134014
0,10010441377672767
0,17723363209964033
0,22581683190700716
0,06434215959845604
0,2478432679400432
-0,4516451187871402
0,36540052960428104
0,3315892130356589
0,5441474877190267
0,04581704076927424
-0,22139526118306885
0,35257800690371566
-0,04118475002458983
0,17870068951947982
0,3779452306503197
0,38778511823587547
0,2708737508912568
0,27631751772015706
-0,4107613585499656
-0,34352194226756744
-0,502162155941388
0,19277290297669367
0,2886036224858723
-0,37768463816634823
-0,06456357934508195
0,46255998192880377
0,1304622387641318
0,18435636422293405
-0,13301104009135928
-0,33852633112221775
-0,07955730725502506
0,11493782739477214
-0,21340446447340733
0,15813512533578455
0,2628432329031994
-0,24273080450906945
-0,55892492724908
0,24331953559130623
-0,34082852180951934
0,04122608902984935
0,05205826533200289
-0,26230741180409434
0,36244442196671184
0,4841141612146464
-0,23120553286627482
-0,48800554841597754
-0,3798351496310464
0,011936106735405266
0,20740180772599295
-0,052484954449761964
-0,4414604710941427
-0,25079431226186677
-0,5151902043726045
0,12131211242000078
0,30972619223126746
-0,016065070038281355
-0,13273746665809918
-0,27160546946605596
-0,07317589418060409
-0,31494629686993253
0,3358149852188289
0,217803344360622
-0,20781326852633972
0,10378473740592518
-0,20221416292145458
-0,14023750798135481
-0,014118851675038019
-0,14913684701961402
-0,15764589461999556
0,36147080816388305
0,27707425206415726
0,1675071634394563
0,6141451185725542
-0,3795353361878734
-0,10994432519799101
0,3900839053109772
0,04732430169113999
0,27136729873680376
0,09752457541389095
0,07486892463543401
-0,24806850255537452
0,13809574206026567
0,15735859711962008
-0,24887701438386733
-0,6500815068266094
0,2909294293054186
0,3747142223474422
-0,0935421085928441
0,6052509147437347
-0,31609931210047487
-0,40711727076362914
0,38966755123975166
0,1669607633995409
-0,4774204926676367
-0,48303810203062497
-0,09235995192791316
-0,18571348030733667
-0,2237846202406
0,16866332149858282
-0,3278272696977856
-0,24740112434478576
-0,35989590261204146
0,04332390893484211
-0,33731651711799693
-0,11301947405728392
-0,32892858971412314
0,24579149209795484
0,1378906082305958
-0,06021281533250335
-0,35680499899625556
-0,404330948062865
-0,42436255622192837
0,2672231386894716
0,18665517944913143
-0,037077465483824866
-0,3614633633814879
0,3671862692446603
0,2281405946034762
-0,5142095341413759
0,0397164583793495
-0,053844651066544826
-0,06523822659285815
0,008490236519235746
0,40583390785942036
0,34597496644412407
0,09018391851637005
0,21652515460166244
-0,0442230634043202
-0,44536639642991777
0,13872903296860636
0,15741300334365885
-0,15279564460435996
-0,06897473173859378
-0,37541822643812617
0,36005992237153783
0,014061638019968402
0,09072555572411688
-0,2899886292678443
-0,2520525599075883
0,2393635658658424
0,4316480768113396
0,14173888952298858
0,1544436801925852
0,21890475776305418
-0,1469055090571051
-0,2522488295538847
-0,33513006978140836
0,051033998480014324
0,3787767934489944
0,06004575127866563
-0,3591752348640141
0,29678123247207877
0,032909521098046526
0,394630491981365
-0,23496711398028416
0,4651997991750633
0,6152551254263207
0,31666092392841916
-0,1021275465416662
0,0050653183096945435
-0,3916364581304548
0,11415597301534773
0,14032377845934474
-0,09922217771480618
-0,03147153624258956
-0,3569506433587624
-0,5126828134194741
-0,15421497397187947
-0,0713360849051341
0,24648247193754458
-0,11895939059160678
0,5186503808931999
0,13158267499739357
0,3661495396964281
0,013677520601303976
-0,278065880691715
-0,43185775778014857
0,13776110138077804
0,043405020915918115
-0,5379344245415272
-0,08515992316053753
-0,4372429888994608
0,3589664923719065
-0,2941575608346137
0,10790330143237603
0,20029225393611458
-0,14443914888039655
0,1731724493155366
-0,28976884096239647
0,24436714356476094
0,26997251506040654
-0,38058572965607385
0,1914545301406738
0,2957718849237113
0,11665507650316813
-0,08629370539621539
0,40234385362813585
-0,20181603353723465
-0,20566995680069552
0,1005050239433545
-0,041941505831272416
0,3064007047443085
-0,2369508602498893
-0,13819557471400154
0,25421641806744216
-0,0796258833554887
-0,6543616436701718
-0,04915267957850022
-0,3342551868050968
0,23956670504374888
-0,20600737873648942
-0,4518441723220227
-0,09583226476775093
-0,11573190461245927
0,45908086979124596
-0,2562767654872692
-0,30034967627512993
-0,211091303452456
-0,22870416331614105
0,27762857733619634
0,47878328053029856
-0,18253277515762173
-0,05346155759029526
-0,3223141996684323
0,399256561905032
0,013686303121831628
0,13397917577195032
-0,09610224920794838
0,4138198819544907
-0,15756523512189807
0,1437802403431078
0,44123568914793493
-0,4354716050599494
-0,08367321342256782
0,39754604796877935
0,45255972863034344
-0,4384859682337545
-0,07702956625292577
-0,06924462309641546
-0,23223851178886273
0,4042850348983148
0,1456159804734305
0,23755433176284493
0,2914176310794582
0,15676944923321195
-0,062290740565022686
-0,2721632624231081
0,31724271958361877
-0,26383409367031074
0,060389918484958116
-0,47153965512545837
-0,289145977118507
-0,051545557693643114
-0,11030544040996935
0,4149590656185441
0,13480422593244837
0,41988517050215723
-0,010865127976169809
0,024990742273288572
0,4424034878232314
-0,2918916479090618
-0,21401576623387167
0,29507885424858304
0,06712620077464043
0,36834489413416566
0,012200029576766925
0,3666893656009254
-0,16968035692468245
-0,42914225899134584
0,24062567658589556
0,18696618237137924
0,09604243704048293
0,24588186036099297
-0,12491109900027907
0,008222997121341526
0,4719566289558923
0,06683290505151594
-0,13096418118703654
-0,3044948691986808
0,37626849314379357
-0,24514691620584772
-0,4540187659103744
-0,26583723672675297
-0,21601382751202897
-0,3802759305842769
-0,10851718372847419
0,03464912911325827
0,25884279115684933
0,3037136220661655
0,17888191470609524
0,28549964414457
-0,0895595588475458
-0,32813834194088076
0,48828203230041567
0,3195019864138545
-0,006068463459999784
0,2912857088554862
-0,14394033449032684
-0,4921806990511094
0,390986930044674
-0,31001891262941506
0,10009694662316504
0,3784982587765441
0,19144771911910585
0,05481448343967088
0,35329202152902606
0,43392521278122687
-0,3578464028423539
-0,19539638510076618
-0,21742908207776723
0,1481999378370088
0,3722941535879476
-0,16941790137415025
0,3592570418426668
0,24758886638079314
0,4354984662731344
-0,02798749546091306
0,13888700624978723
-0,0651908908619131
-0,27549355006572707
0,08485073417574651
-0,3737273135779985
0,2905667964672589
-0,3127443072597572
0,4423316638622946
-0,08069969006863797
0,45687501240425443
-0,16982393689739783
-0,46486971883887374
0,10988711800459172
-0,2893455678154907
0,3683917075920503
0,16849223183770998
0,14414891825830947
0,3727724036394901
-0,15368602068005513
-0,4517367052000175
0,3149920147240452
-0,011145941144244706
0,06579166272949397
-0,1114672723313775
-0,11130823549149109
-0,47364065939341
-0,13924507553864762
-0,3359872236855664
0,031857247177573524
-0,17559150699237772
0,2526510916794512
0,3090331287452499
0,3758308672419476
0,16671188436558654
-0,26237989581809584
0,1041160597900317
-0,46234798410799277
-0,016897658995333655
-0,2500927014779128
-0,43445485981041887
0,040239078077894334
0,3172090975444421
-0,2896937244294993
-0,2987969375540792
0,37795270307560075
0,4885821785911265
0,11193998541430497
0,1543313243183299
-0,18965725272213485
0,4422330458083279
-0,2699254723478866
-0,3794831207825719
-0,09571762961070182
-0,2370471095190926
-0,43730790504959516
0,37026623983181506
-0,2568333832330607
0,10477750792266548
-0,17830082474487688
-0,05944072259625709
0,07440901531586423
0,04738381427291914
-0,013912118575776284
0,13346747727574876
-0,21088461808239484
0,3994788119323087
-0,07095851846237988
0,05230566829061512
0,3619719933032634
-0,5023235377512068
-0,3353922976709519
-0,11164966404815105
0,04485279598819515
0,33802066044372914
-0,10516676129421407
-0,17499168294561115
-0,3908369915042438
-0,4886105786764105
0,27725155187014966
-0,21127057175502234
0,010135694011598298
0,04566084321104763
-0,3550448311213365
0,3672533179049224
0,1845992581250337
0,2528501769081959
0,4650108575880965
-0,10838512536213928
-0,061050202451027547
-0,2014188469045603
0,25042615119400197
-0,19454204215842066
0,05771265875347624
-0,28796319041506696
-0,34686986232489847
0,4777955251142621
-0,49446085682368796
0,286375653240749
-0,3626494077168511
0,2427067776582034
-0,047574214199585046
0,3090020953001392
-0,15786534028111301
0,05629002565218251
-0,122599990495968
0,11242175465655764
-0,4038655314887485
0,11408803381278529
-0,3813770029679216
-0,3819176475066757
-0,06798260756514674
-0,040295945878860935
-0,22463033406661284
-0,07690456583649316
0,2509097908724492
-0,22866105165475775
-0,347717898918489
-0,261939724470048
-0,2990960691449667
-0,3772071495641753
0,5207602298351852
-0,090352701207147
0,3057985166131154
-0,10639896811757911
0,22733963265369042
-0,1913987466055481
0,10728566169844625
0,03365603246206981
-0,19559723271339735
-0,26728666294333203
-0,26182319423315653
0,25950106818307417
0,15283095352706152
0,07476962949041956
0,2664684620129494
0,3963097336405343
-0,32026920888603244
-0,5312426423575274
0,09685907202822391
-0,18273846970508723
0,2761859220986581
0,09648968292847816
0,1525340392892078
-0,09332787238574239
0,41778887595668124
-0,5736115920062695
-0,20498760784974746
-0,23218524888976622
0,013394758943687739
0,08161990137535385
0,16848237824045145
-0,6228818530611152
0,294781792824478
-0,13109674258290036
0,004921922450505134
0,41131981772744597
-0,22438611813263876
0,18227108278664336
0,0076045619370175765
-0,2808378974396358
0,39081970166481356
-0,04310865971426854
0,4198034429936713
-0,4133797506024155
-0,2518633983800645
0,20590767006127375
-0,4414308284353098
0,0423843754659654
0,571929952207747
-0,4555024030147712
-0,0795840628967683
0,1525432995487199
-0,10575615028747605
-0,35741157086213976
0,6130247952079715
0,13865194880321027
-0,3445510760074088
-0,2947356428957439
-0,005360905600907492
0,26456597709416224
0,7475370313492357
-0,2580171792890535
-0,31064133854103165
-0,6264519526953065
-0,2473360675371056
-0,3303521860853333
0,035410054179564936
0,43942012209722825
0,40387499686706047
0,13603213659379626
-0,17883704805457556
-0,35104081877806215
0,16553556201504557
-0,6058976258445296
0,2654247048972654
-0,5439880160686439
0,166300397334528
0,2266684097490478
0,3188963569821537
-0,1427928067147113
-0,12665761758569805
0,30183226477449165
-0,2485442029065055
0,3838347655451148
-0,5536196220229292
0,25426078966410315
-0,05087250901796653
0,18606075579403233
0,016981110342914323
0,2638906080544783
0,14617447276191603
0,268709431514407
0,4914264380810379
-0,015535237433428866
-0,22679168139053132
0,011730578333452271
0,379755897140321
-0,3584217162520466
-0,024891922637328895
0,05230276000006374
-0,1509237455315723
0,10907610747444825
-0,31667631036314126
-0,37725802861942503
-0,12215969298703845
-0,37534538111233723
-0,3261976761534189
-0,4052627711748254
0,2562984972395379
-0,34436262581659843
-0,14237801487776522
0,21528211668836592
0,09203110343567428
-0,16389092036913766
-0,4673536635829882
-0,036921680446600345
-0,0875753829586886
0,34231877638718405
0,057846496380359505
-0,471777661635086
-0,36783144564302445
-0,1712407881823269
-0,08615789440111815
0,4002810456491899
0,5809780375853899
-0,5099186197014113
-0,31994861086788934
-0,4783153088156626
0,15871789152889698
0,24575885011385407
0,10843540758117316
0,42224908621639445
-0,25093207762951697
0,17838860862544836
0,2631701359323387
0,29708871022900274
-0,38915998641995375
-0,28787913771184465
-0,0708461677893257
-0,41883868713914246
0,2524134418234509
0,39631402244677877
-0,44217959295973214
-0,4332103696757315
0,29360525333034904
-0,21545298913524785
-0,26454135573723914
0,3194627735983489
0,22290965756489836
0,13120166373713596
-0,08995781052634458
0,14393219932182275
-0,09547563198404158
0,28548480188793696
-0,030969429331333315
-0,022526978910159763
-0,022511936438308275
0,020620568961456028
-0,2540467891513435
0,30667981936569644
-0,04632405444045717
0,22983261146860703
-0,3017864332760817
0,3690380333135685
-0,014765282044827221
-0,1482486713155674
0,24692995583924193
0,1451039329712598
-0,013082869886226213
0,22090273678995576
0,32042825305171535
0,10539185644920601
0,16150676039087425
-0,054480656264733925
-0,142112092784157
-0,23377051699743487
-0,47786299151394435
0,23868286028248223
-0,029007445237080882
-0,4805068431970816
-0,47938584016952324
-0,12649819801486026
-0,0981960210845986
-0,11691720236518732
0,4811893329059105
-0,16674155790663336
-0,2222412686474718
-0,4807290386880903
-0,133239335767663
0,44882119113435465
0,2334534264752129
0,38331872491584
0,045384552460632
-0,33075691940936475
-0,228864075690545
0,3334626409763747
0,45325118862574615
0,08583951360109866
-0,22097940401443178
-0,23021017930628915
0,06994816023925285
-0,012206660861531134
0,04048841432668139
-0,4411661912769711
0,13133175317190676
0,38607617212419726
-0,006345308275235402
-0,19287185486943378
0,11769425179635332
0,18781114577583852
0,1679438847454366
0,5045149649917706
0,06272108396111448
0,1997403185915979
0,2940877352715965
0,5521416922069001
0,22114394223919648
-0,06341164837199963
-0,2145225362221631
0,12252768821632519
-0,5861647045004402
0,35378141458142925
-0,4974372261682947
0,2548833658549898
-0,3796085333353863
-0,22582739669158758
-0,04329996812570149
-0,4652159543188628
0,3747933656565561
-0,0890931846719463
-0,18282167611247122
0,37100730560770073
-0,16157554399050153
0,39278649726561893
-0,12048463821594861
-0,5481144013174473
0,3063076490509923
0,12970311100129212
-0,06924950835053398
-0,31531186178949155
-0,15364472267486634
-0,40872841413848615
0,405756153580718
0,3409581630819241
-0,23561167856057308
0,43594747245927046
0,2621828744340129
0,17301463025084277
-0,25943371679860355
-0,25946783836186826
0,05315652154666184
-0,20724130137799107
-0,22013230175668014
-0,01702891099033128
0,4388905132931831
0,12837377966161398
-0,15429474606631055
0,41497424161319013
0,1080516878237098
-0,20693854278448273
-0,31228506937904915
-0,17886852101125475
-0,4918800974390714
0,16839224708624842
0,272129107377042
0,0014551743107463523
-0,4906601551253336
0,4897815516241208
-0,10377102797804422
0,2326752520524577
0,21542400621995392
0,3174281087275376
-0,41622865504914186
-0,018055422174757814
-0,15011175793444878
-0,20672876164296158
-0,0766962392891967
0,0650433531955375
-0,41877673715229474
-0,2798673861933363
0,1097507407937714
-0,43207460644067774
-0,01591914761507269
0,08143723127984204
-0,16163863332362496
-0,0269843491118054
0,39549003816195394
0,014228390283707825
-0,02212849954225875
-0,24789125060229922
0,03433462375063617
0,47643935127926706
0,2222679902323415
0,15483599714323004
0,39501796395708055
0,25486718494147215
0,13057430449345508
0,20556603062123718
-0,2625966580621569
-0,29964097332641765
0,4883827534584068
0,45802993414445364
-0,3536089043079633
0,10350029414923313
-0,1730427064042481
0,31514202186245865
-0,14178676021125625
0,3689825993091606
0,09812761064859615
0,48291679280871275
0,28050180682943104
-0,1813524967076338
0,35500119625340176
0,4769522097625571
-0,33421346535083857
0,4684151219019059
0,43920972440667094
-0,04541623289706178
-0,20654992401034983
-0,2442410438314509
0,19948008480599247
-0,2871249623557791
0,22169404221192368
0,24087760286934823
0,2770580311537957
-0,30877872689445074
0,10161169529801606
-0,08347335490944974
-0,1450392986953356
0,08890074164032857
0,41604276813114693
-0,3669357138626814
-0,2540247973531645
-0,09368870093059045
0,3565507555970584
-0,4042416002766889
0,14643254416344098
-0,13796250555061318
0,08973172974646526
-0,2706322716646412
-0,04922092681473311
-0,21265981712907012
0,3248815358429531
-0,46817600744411236
0,16801448158660537
0,21183208135941856
0,17581402243329947
-0,20785903255903382
-0,3038109762656599
-0,1815661367921385
0,4134333587673863
0,22495780935676946
0,4635429433498036
-0,10249265125524354
-0,39039559428366627
-0,311011612101309
-0,37962529056354416
0,17648975560970293
-0,05625357653130729
-0,0960608669548219
0,3813619863217232
0,15986112008374256
-0,2531847706596374
-0,4146093895109441
0,25136532843576415
-0,4592066537542126
-0,12359478547384797
0,42716853180934655
-0,16120069294815426
-0,4141376947285938
0,4350442850680803
0,18580637443474216
0,3105074081758084
-0,1878963954376879
0,1927209297204693
-0,2255390386825653
0,009241501829089014
0,2127891975555116
0,2689798530033451
-0,3768343385066519
0,19285103915634846
0,08190705844722342
0,13077280274062472
-0,30968982282932617
0,4528985026292471
-0,2389741198523023
0,04759527463560757
0,1309149888602809
0,1044816771251962
0,3007146769611893
-0,45245515317403656
-0,07102257574616141
-0,20033923185322966
0,14269810559359972
-0,16515380279711017
-0,33414361692573347
0,4166816373227103
0,11977728248177821
-0,48614141931637833
-0,4909225073969539
-0,0855133219809202
-0,35243106210621494
0,04105842121414795
-0,4985729343156446
-0,14580579305338437
-0,153596268214001
0,3165828410779385
0,4469935770890915
-0,4184340596439443
-0,15722927949319776
-0,5264870566190059
-0,030373165513295795
0,07746984303580222
0,21176550462755916
-0,36910778740375644
-0,4329648743458609
-0,08975919914966088
0,23563747266436247
-0,08190764467624909
0,05754587969133902
-0,4378304075912047
-0,009410877404674991
-0,29875153555049944
-0,20859438172242573
0,2053127304888236
-0,4658088559376882
0,01383528654580573
-0,29550576102092335
0,4626488905955574
-0,19013990142639756
-0,00876732321981689
0,4368253913620627
-0,43504020179250313
0,14134470781214148
-0,12258638568915592
-0,2962871705352687
-0,3991148365493998
-0,4023518489160586
0,3859120297628506
-0,2627511562299382
-0,31134893880656317
0,21504105521384495
0,009541129474653192
-0,02277656037249989
0,2992083544858642
0,05982640149952504
0,420862778585446
0,32148088449679646
-0,058351506486781064
0,3767224898567514
0,47156319049962064
0,43383529690458167
-0,3317883345403741
0,022428606359426024
-0,35241683900018467
-0,33177489863165155
0,02570821927278567
-0,1628375576451479
0,15477492188497782
-0,2688725512792661
0,5010932315006208
0,20150109306059763
0,2570580266663564
0,12116004158176347
-0,04627428133748851
-0,08101760734071511
0,06943373549074476
0,49893832082024125
0,1214410211980531
0,0792879820133001
-0,020444293839750327
-0,07648736349349222
-0,35194901784298094
0,42027507168182654
-0,4113175123864676
0,12344134710042631
0,2458217880641612
-0,2730267570973332
-0,12145078778102697
-0,7225474716195889
0,11291463979896733
0,1509817783413676
-0,024265573748173768
0,7030793707598582
-0,49987419421339957
-0,5234095652185413
0,14183498982538625
-0,06654824247729668
-0,29976304483852584
0,15939069764761205
-0,17447267430806485
0,0015482972701511694
0,1851274847166043
0,15965578387643314
0,32156013017618346
-0,20900309587708576
0,36592422638901856
-0,26807699609908153
0,06587247385416964
-0,15135715600173072
0,34174461217222535
-0,5326067494291508
-0,2888214742560116
0,34855529615030045
-0,3765026229556755
0,24961093256639114
-0,3220134626381202
0,41038016816492245
0,602862626664317
-0,01674215656244005
0,008264288868890081
0,003966859202907119
-0,034656988598250886
-0,16617424058964553
-0,2358931209646596
0,7591579002892533
-0,24085289352614092
0,2620330080560594
0,47123394151380044
-0,1361134407302488
-0,22965300523986953
-0,1291158149381128
0,2357726826300902
0,40756723464879224
0,22999626139479853
-0,06769592937431637
-0,2695733524354125
-0,1493534336090379
0,2876077990641772
-0,04530029131051684
0,3295100641366947
0,5502430672310913
-0,06682059918614752
-0,03957714021232692
-0,04020822352546566
-0,2714538322062119
-0,6938397369661607
-0,35995058514950223
0,02280233543114617
-0,292982755797738
0,08954485964720688
-0,39144392518163995
0,25219830980637525
0,04751613061604878
-0,10844816533160813
-0,14382338555491486
0,4139089009125095
0,1403121667695642
0,3172001837863529
-0,32001192957134317
0,19307256930050834
0,09466822543937385
0,2817559017876528
-0,32067610015763814
-0,24938970846196654
-0,23120155838052464
0,26768464927653945
-0,35345272045972226
-0,3570117692222054
-0,491588115803527
-0,14867585028448832
0,09778940935820106
0,49941711132841704
0,7784580105789257
-0,12099151898609377
0,32396959154652893
-0,47090108980069995
-0,1944435626127217
-0,10849815689519827
-0,03831838998224027
0,06158261822715431
0,2877133360986416
0,6278659042922357
0,07655696570452099
0,11100672288026467
-0,6148058535627977
0,009844791132423454
-0,0853377317298539
-0,09177578318591864
0,757110457708801
-0,21933169734395205
0,5930115830217102
0,030304820989240904
0,17482854686150326
-0,0021716134575855296
0,210677472292319
0,2015598070738367
0,47564415995581055
0,3692747327855117
-0,01672213166889267
-0,3126611253015245
-0,16649814533610152
-0,10141872810832586
-0,36892437798623134
0,008834890095064371
0,20442250361931133
0,0030516395608412785
0,48235418922811363
-0,4769022699741991
-0,17618659139423193
0,4671717452640397
0,22811957549667866
-0,08769734254868924
-0,39115145424996894
0,08144054860759424
-0,11606358605600427
0,11621311280134404
-0,4553646037726299
0,33845329968705273
0,30775449940293376
0,12028685731211392
0,46936566154713943
-0,20597663818097334
0,19609816614690004
0,33643548102039333
0,08799155071550568
-0,16967124616881593
-0,009447121121208829
0,2798294869502324
0,40150257015340735
-0,22907360223720286
0,004604186408624202
-0,17411310370860567
-0,14636070631140674
0,09168183033155182
-0,4141581739000307
-0,1256232516444937
0,220788072292434
0,10909431828413226
0,0975438627710119
-0,15976490999929985
-0,375875202115719
-0,30853676641746053
0,13533893932036994
-0,6481242867401108
0,586701355190284
-0,03731099283303079
-0,23311306026221926
-0,43292293121394226
-0,2117444957436425
-0,3150983787793606
0,27062791378891093
-0,22231854272956714
0,18881555164140393
-0,17255487330776811
0,3875684221962523
0,1492731438012724
-0,12739293861550122
0,305212021400392
0,2890120602381973
-0,24930376213323674
-0,1710363732167333
-0,28331243917252574
-0,13475674173784913
0,17725689890561988
0,028365166206115573
0,2827998548211275
0,34137538807480433
-0,23855228819312604
-0,014005140665631086
-0,2677122359572591
0,43799700518552587
-0,032900768320640934
0,4617695184821057
0,34791326660278843
-0,18406375038274542
-0,38363100743537065
-0,23400335041047818
0,03844553205887857
0,03749358837020155
0,47221580950165326
-0,27153684843037645
-0,14470992969714394
0,2673155471981915
-0,3151590006882074
-0,17943929669753683
0,29196391127953203
0,3429566746700348
-0,023267114767554147
-0,07906653908131607
0,301736676002961
0,475234471046608
-0,09081399518320585
-0,16376348627074777
0,14363490724641764
-0,3163983577996725
0,4655114315087359
0,24367108398201937
-0,19041080213853995
0,4319614277037143
0,30406140025900086
0,033319200142163996
-0,2869310806576656
0,5046507160912823
0,41616368925072256
-0,016521135265227235
0,5579534760731706
0,4874077294706992
0,08021110756879045
0,1700363882520716
-0,020412343557885525
0,384873868653315
-0,291618997716185
0,5227003945915821
0,05108657315610155
-0,13957362033891868
-0,4240283697828442
0,3979734431244621
-0,018138541128471814
0,08780072312460406
-0,11933021463902506
-0,397202881458063
-0,21390542991028846
0,31429336897414034
-0,5073331637572565
0,06367233538462144
-0,5793696960422657
-0,39802965333159734
0,015814275646802756
-0,3466259511041015
-0,33633463032483635
-0,25920497579480645
0,17219724364356373
0,2112831489329364
0,381328155475611
-0,24997705480926588
-0,42408452513896894
0,39873478180486016
0,2465489817681867
0,1307888108370487
0,024331575320258404
-0,45694203435370817
0,32609551118397107
0,18855678389486355
0,0032046639599420963
-0,13210863131086545
-0,4664163541265631
-0,017877530418977883
0,3727716614963522
-0,15070289924252517
0,40266529008242347
-0,2670443633045037
0,25438776389517465
0,3824098140169616
0,36022016748414526
0,4757195192730496
0,31562303254831775
-0,012250286344872817
0,06895315426774772
0,1629916862139653
0,37308437129027044
0,3805388894259214
0,4373798591611244
-0,29944534640596815
-0,319584367559312
-0,4351945462433915
0,45865815369282664
-0,2376434755353567
-0,34341560466519605
0,006081755677012987
-0,05201146289499701
0,49431507105553824
-0,260531593836781
0,3070475194667076
-0,09027996804620995
0,04996608649652549
-0,013402319811994901
-0,47655825781404926
0,03214004714604509
-0,15645208255004114
0,4888587225369857
0,4733381152221784
-0,17552815240652464
-0,4571114909325804
0,3231214300526457
0,05904145346279932
-0,46919469077363896
0,3551785396337157
-0,14251082421365135
0,3720154596088967
0,18793912495760634
0,44213914694335876
-0,008745514196514481
-0,43401072724047673
-0,20675338954717826
0,37865409786687354
0,3519849601589047
0,28108001637171975
-0,40086003155552746
-0,3940869058862782
0,16270541413746226
0,0445184087515573
0,38221781153049944
-0,016017067857036518
-0,4851476945416564
0,31721246227278393
-0,17416378391556028
-0,05991280637150295
0,10422015756565328
-0,48466001951103166
0,2515952395457872
0,332645881483342
0,08421280787514146
-0,30723325020027764
0,30873758407505114
-0,12642252091444683
-0,2843953615173651
0,041341722085346956
0,30642302011268663
-0,39994717864600593
0,1634802131768947
0,059893405147740844
-0,4043550648590829
0,06641411028194456
-0,2623251039062376
-0,013630434230679505
-0,05218057706482804
0,36893647428518994
-0,05886418732297558
0,4855751194409034
-0,395692306251638
-0,1628781660463297
-0,15139456960342002
-0,3074499196263726
0,4054967936367202
-0,37692597071953404
0,4057441891806335
0,4606159847637203
-0,21545703839561034
-0,15338690214744766
0,48196407647112033
0,30348275264356406
0,2743198377076049
-0,3945130755925309
-0,31111739453341647
-0,48737100449351506
-0,027675428322101743
-0,5247063359029743
0,0393352894886446
-0,4872140438628009
0,27567052962556815
-0,09120067137030251
-0,4131134909065169
0,1642714938545652
0,5069472251849098
0,31393708969276024
-0,229809041636969
0,40892422132408673
0,32278426672923544
-0,3651930502104507
0,1188459980128289
-0,26133380582061355
0,3134517287894501
-0,04739432641059176
-0,06356599284913049
0,3457160387423737
0,004767921563889171
0,10392736967551389
0,018358724650530397
0,39783297423056463
0,46233056082495516
0,21099126820122294
-0,060326349890328874
0,4062033233441612
0,147962103104368
0,21050687270767005
-0,0033198954551163606
-0,42185460289342286
-0,11273582364727719
-0,0029354602766939746
0,4376822217055483
-0,3001447293221446
0,2574564355680859
0,4380090006835671
0,008800263281345644
-0,4139907692310737
-0,09322341171908492
-0,11591220529445616
0,14949190588169547
-0,3616179983387388
-0,28616168799854036
-0,07184978514850318
-0,4318054683099798
-0,22991370878244405
-0,48734333323106416
-0,03383791876763629
0,12736048270819086
0,25553748103474366
0,3908836916350462
-0,3912548054120051
-0,12474865245381264
-0,4545356494877302
0,3624416272252074
-0,24391376871932793
0,43917138488619295
-0,24818260558282002
-0,27746590572775626
-0,38302487600117385
0,22469917096244227
-0,10070973717208666
-0,674961945839582
-0,6843863394485551
0,3634910401182023
0,29183594188803386
0,10699770533074116
0,29550942814496056
-0,42329776703469785
-0,3492465123574668
0,1215355113328754
-0,338588267759258
0,11786972291543518
-0,41298321469380445
0,18509406954385804
-0,37928391582212356
-0,29894335446789333
0,19718298052446787
0,06333062327264201
0,22705526604925777
-0,27383362054191834
0,13149878288486372
0,14473305299703157
0,19637409604388642
0,15388549519592354
-0,42673129793542935
-0,026913505385957284
-0,40041830367489495
0,37306381904064645
-0,416766340286262
0,053453492715958006
-0,09840550477872716
0,2101606460127579
-0,08547904265485698
-0,18902823883739373
0,23382394059583117
0,4895870731873874
0,07124918152870376
0,07215944193862815
0,10770932437494458
0,04769322291677878
0,4800847396627964
0,2957829968866291
0,2986967049169657
0,19259851681909396
-0,736116011215792
-0,23163319765416035
-0,2588698109639264
0,015985293472452228
-0,13961791681012958
-0,4464081306332253
0,0045523620955451516
-0,27586090328683005
-0,17571129872972635
-0,6509672502986547
0,14064682667765802
-0,019489743745404773
0,4397477440736304
-0,15335802793496336
-0,06801539981477767
0,19195573314654885
-0,7675859786112151
0,29595840242385435
-0,23639981251418596
-0,14224568816575528
0,5323789899467309
0,3393920512102627
-0,05549589412850242
-0,2206873007283518
0,23922548521400336
-0,6021295224623235
-0,06468415812603122
-0,10776739354467625
-0,4183301246155787
0,2582933793097153
-0,28994042725940067
-0,03490486665285536
0,16482123854370767
-0,019146387977024195
-0,034862520467232
0,18058452732945296
0,0030955903728298573
-0,5674439153946511
-0,013591760612474572
-0,23377433099034292
0,300050560450164
-0,23314175239322035
0,2606975854905363
0,20054101986965187
-0,1602063020903805
0,1716703226186933
0,1497586810670769
0,17429209638794088
-0,02432524421420122
-0,06204939338725672
-0,4330031423266937
-0,16300569424603437
0,48046495354330465
-0,32730628723085947
-0,28094927453848634
0,21113596729405518
0,16077413797094367
-0,7850473919072345
-0,30040822177158827
0,16861609565749383
0,27910217699031026
-0,25304980099695695
0,24121148772043208
0,004396211145882708
0,07558965965527578
-0,009276885476707878
0,24124268540675178
-0,1081422782142813
-0,16481383109424838
-0,05601771994100774
0,39088977050994034
-0,11862328675873751
0,24875608623430373
-0,15729478443804829
-0,20982387458829208
0,15330771352741698
-0,32959959948121587
0,4156974454810282
0,7266575595271477
0,23416840715367135
-0,11692451097559449
-0,11025694831679629
0,1589624458591967
-0,022544332131432126
0,4094460844348959
-0,03467320395019453
-0,22554450827212047
-0,17019992471456033
-0,1608382041937233
-0,44393418658843803
-0,2145037177866044
0,6224319337560553
-0,2739239800751118
0,09886406117406929
0,3924513033762109
-0,23383876628303837
-0,18921443398716897
-0,23415232107310774
0,1667955447298322
0,049805188940923804
0,1119811202569716
-0,36134178660023375
-0,3201798183919295
0,28850891478560164
0,14806627468743938
-0,06761290301039598
-0,29968099791712494
0,08383250230984786
0,19346039312286847
-0,05459305445856278
0,2581000506503892
-0,14452811882050667
0,08386410817360619
-0,0780126937163499
-0,18938792580006794
-0,3686895465181845
0,26772640130377856
-0,3637486557417248
0,4030555516331945
0,15579856193345154
-0,27083614371069914
0,315869222142704
0,5246229063802516
-0,11849144677073095
0,26012911222128554
0,0296300960933191
0,4802137391725221
-0,2360427451514953
-0,031466804673351216
0,3133850868467819
-0,44885694339066057
0,3029004870839082
-0,08165829182770314
0,12833057532337658
0,15614305606360987
0,2770715077764159
-0,059504600916416364
-0,1944128300780194
-0,19903577785368604
0,20904576751747675
0,4420502890545193
0,19133235596821555
0,13991314866384452
-0,21279028640503916
0,31095330055629516
0,36874050290049937
0,3453962417185685
0,24820937265004467
-0,0692114982263507
-0,5626597149704362
0,20399508486838644
-0,23660243319418228
0,36563942000720606
0,064836250843714
0,3924829151507045
-0,18529881050098643
-0,12950678248441225
-0,3289284668878773
0,30841532086114626
-0,22192734665453853
0,03876187372452018
0,14922565637430044
0,18071664064395532
0,29753332449876413
0,09072582851872378
-0,059199338190198694
-0,13357010234404398
0,4861948004513231
-0,39134251352888977
0,34868564336932023
0,2521140400946354
0,33421011469842554
0,2022359874028956
-0,3521177938312428
0,1061332508392735
-0,31333306579746506
-0,028035876493183627
0,0642207486867411
0,3171530166460802
0,6613238322561308
0,26671356750922526
-0,6114173122905345
-0,09619280329519916
-0,3667554634150592
0,11530340619514395
0,08029208317271991
0,04988128653122598
-0,5084189653718842
0,213058290179316
-0,3797525114284816
-0,35404180848029104
0,21234216657785318
-0,03789732767532372
-0,1760620672481153
0,23209449305923474
0,056120055641964504
-0,5332200541686344
0,04264091652441695
-0,07324835298504298
-0,1103942113398072
0,2569652481734652
0,06035855125431847
0,7232171625462277
-0,290314745707393
-0,15082150619945717
-0,7479753556726266
-0,3344773023709816
0,6962024977622523
0,11598486204748407
-0,12353985286918448
-0,2194859032575569
-0,23732100810254533
-0,027687943849040664
-0,5197100046620209
-0,06917034279498324
0,06613306935537552
0,4419533520820746
-0,35688779471861715
0,6402222229550827
0,29898401708011185
-0,22421682802960838
0,17476690906236192
0,005145853273297758
0,4752225859161864
0,26371552186318775
-0,25389184281330457
0,20853011933391638
0,3094314024183347
0,215838282272054
-0,2341413929873487
-0,4150059584870473
0,15314124389398542
-0,12223446848313928
-0,39765325481612795
-0,3130967168562124
0,2386657058197776
-0,26712133833258644
-0,45490098401462076
-0,4700273654862388
0,0225131809943164
0,46755731342699336
0,3259861896459365
-0,16559483154427707
0,4987401358064746
0,07726466329093751
-0,3599417578255523
-0,4379897622749917
0,4468208891952683
0,3516336937088057
-0,45965889636618956
0,4222561231113409
0,44435837782424903
0,5300833200695683
0,22113685352246348
0,2388148335503802
0,16673537909851924
-0,023022356312700616
0,4626366986999195
-0,48426269897588364
0,27112536936134607
-0,2854781687681507
0,47413510915356444
-0,1318059556623493
0,33175729338506627
-0,020144390883295237
-0,13001070849147534
-0,164456828081303
0,1868326892258042
-0,052931640297741805
0,03202307063522348
0,41363769083016705
-0,3616385546676607
-0,32211755839070505
-0,37050971470090854
0,114573502713859
0,49264918947575215
0,49403894854009794
0,2700839770801584
0,22058717376336998
-0,25228302129071034
0,12133786401640212
0,4996789764852053
0,47241074436458425
-0,24420225663994047
0,4115867920047204
0,033193339417301924
0,10540450444120099
-0,3638470973195705
-0,4417549565525618
-0,4802846770686143
-0,2303487113135791
-0,3771711555390623
0,23746408182940584
0,11360388124920497
0,3030087457394426
-0,03089303502385557
-0,29504300827016844
0,2783197196501107
0,10251265510833778
0,4422763795635926
0,3481855493823866
-0,3300467736405894
0,4936123715172422
-0,45821756072139447
0,45298967540415264
-0,39709588555078773
0,11123783439861609
-0,04255908550500574
-0,007826956681363354
-0,31953399043014985
0,26712656674113744
-0,30951364132239423
-0,494608563447764
0,31034222594973204
0,1905330596348951
-0,3919457297617185
-0,2434969871418857
0,31914568360300494
-0,08325267275724982
0,18872504807793
0,3814608739868169
-0,4498987840298535
0,32414237539588325
-0,25009389754858935
-0,24169544081037397
-0,012935540947843625
-0,3064318700206642
0,46934806779447763
-0,3163220282085993
-0,1291578963549908
0,33054048962991817
-0,12163657728116094
0,39194722113926606
0,004353048713046793
-0,4543992357918105
0,10936656685311627
0,4727997873949377
-0,06310121076007305
0,02230449199596939
0,1356042976913161
0,2676663595852811
-0,4744858550251629
-0,07287744264071817
-0,21532657781692283
-0,40884222715808566
-0,38768352207327944
0,05262894492901128
0,040878582880184644
-0,24584408421031537
0,2520733572547884
-0,015145635593473296
-0,1780923329594662
0,45900418401384413
-0,10887905800459365
-0,43846884511553447
0,3815086404199267
0,1532366519817084
-0,4562893012705701
0,06606612769681745
0,16815918671789462
-0,23533888923809204
0,07439268285946307
0,41438517008227804
0,11917246346783182
0,4148492900429551
0,1331030102182331
0,3717334491110025
-0,14477779857854645
-0,3737422134775927
0,3615475702855398
0,09689861603348311
-0,48786291703587964
-0,2936609388479911
-0,383857504783805
-0,3301352228718812
-0,44621622146318957
-0,05242894120470358
0,4490006051226868
-0,073507713358558
-0,2527933349619712
0,4972416436124691
0,43227037315376066
-0,1348404391889248
0,7022788255006351
0,017971148044294987
0,1615675874425674
-0,2822093804970223
-0,04708321261865834
0,17670754056630697
0,15023542900621856
-0,37788648088146404
-0,28524357953808804
0,3361231254260574
0,4468215016918669
-0,3672707570912163
0,26505368530477325
0,22507408340298982
-0,08654877221089446
0,1854470887433764
0,2826735963272503
-0,4624023443830109
0,21408571626484346
-0,26451100397221194
0,25137405769362287
0,08180211117606534
0,11646800222622196
-0,06605643131793866
0,21827488335851583
0,3323536555137805
-0,5657884989415426
0,48027262223430034
-0,3488785915897669
-0,0021431077304843653
-0,3161312063938634
-0,36062239070874796
-0,0009441995297201167
-0,005351160175497776
0,23790597009875256
-0,5024320659551892
0,32406731164665903
0,28507825448204843
0,25509451042186193
-0,04901852439716557
-0,35244203727391804
0,2041224047612298
-0,2735382129984977
-0,47173644540586074
0,28785870940158925
0,4168150271184783
0,553967814856648
-0,4198074683688382
0,08479995862635119
-0,2078942466791134
0,1891906827225982
0,26872394548772943
0,013543387677385763
-0,15221607232294215
-0,2892104581136743
0,19032607531152904
-0,2618727506401697
-0,38470789023585755
-0,39008736022771107
0,39254446136362453
-0,2059290674244089
0,25158211385897555
-0,140754164077795
0,009351204936420394
-0,004100877116808555
-0,045167845041333185
0,29583931729265933
0,1459277634745776
0,2628745845482468
-0,29014008106900885
0,24921756066901016
0,22002564244819706
0,3003774120172086
0,4286083851571902
-0,2232185849634005
-0,03709846172966792
-0,2546702152129501
-0,21650977526283022
0,3350586918634824
0,30837094140439353
-0,08780957526458634
-0,5214687874234105
-0,02372020678634409
-0,4063799717392833
-0,06693448030236433
-0,23404557113550536
-0,02748094846278289
-0,1134090524357858
0,40897260763290977
-0,3606128263521768
-0,6967377720274104
0,49006151123380526
0,1130013415149521
-0,15298050165311436
0,5154942652899901
0,10519242625461615
-0,008435346518469378
-0,23900486791750353
0,0858139827473783
-0,07882510395853107
-0,4256847375173362
0,12955127820728454
0,06299802875573654
-0,06344157475404062
-0,13084872397499245
0,09205629753792412
-0,6881162003402554
0,15730616924864615
0,06855677005454475
0,34325988765063764
0,007301046310001779
0,20095129125847622
0,048747395387023704
-0,3853040573758
0,331675753828034
-0,5018374169346481
-0,29903939976903876
0,24991641672668133
-0,4518838244186437
0,12730541032789322
-0,1629982806909713
0,05624603948190607
-0,8634990131832713
-0,1152549098986266
0,13007391655918044
-0,5879029222621556
0,4024414217797246
-0,021680265340005056
-0,0036307501878090767
-0,2523496336164109
-0,5705997182853058
-0,4157664558984579
-0,13537321433396785
0,27118684081738603
-0,3739719846332438
0,3284145384160223
0,564355388776711
0,47407394877531545
-1,291109171461149
-0,18171005644395938
0,11180513740399947
-0,4072438068841438
0,44042140342523256
0,22656434909405523
-0,6491126686449991
-0,712065554816897
-0,19689695276526142
-0,6633609341859086
-0,67774377671738
-0,2275220802974378
-0,5048820785950427
0,3505967710497974
0,11058697588022187
0,05738368549751975
-0,5652785774618672
-0,1957061935727145
0,9742168048988616
0,013165607830861093
0,04228670943213234
0,7922254231247952
0,309409355328643
-0,2586360518678731
-0,31472797129142277
-0,07429686805556306
-0,3347559370226997
-0,19298119685959114
-0,4487622026092703
0,31670113104815567
-0,03372644560529676
-0,185991639151008
-0,7285674124448431
-0,07786497846029114
-0,13411331859941394
-0,07464625287335892
0,17759421342997433
0,5799228600553872
-0,05056847296396906
-0,3239115848360168
-0,18012477845429503
-0,14261888169495524
-0,4555679158730288
-0,4589017989743244
-0,3852813735463584
0,4366700693155556
0,21476764753524344
-0,365286619491593
-0,8314824645453536
0,3630302362286458
0,43849608110629074
0,07406556765265582
0,26328540181812465
0,05110344672555061
-0,06515086972520864
-0,3416861146484147
0,05479257415699892
0,10305130277914144
-0,4375757816140107
-0,3159125806183995
-0,49147950880289953
-0,053114357661032306
-0,10611936325880969
-0,18123430856982908
0,0037287956500355103
0,1325261086083223
-0,04190067980842577
0,19099250688816355
-0,4090810584615284
0,017840821414738823
-0,24939410220671787
-0,3307214979370946
-0,2429372577632444
-0,40684816150868824
-0,10624375822679416
-0,03896012598618302
0,018761843648699636
-0,11737574186429584
0,3395097319341972
-0,4169220634873911
-0,3249191360267292
0,40737934065143877
0,2673092992543878
0,34517584734950346
0,4414820183341605
-0,11609123713472237
0,5884515770993674
-0,3032352604146193
-0,20356287197496262
0,2222980938070504
-0,3212263918206937
-0,08596243538781619
-0,06954754314869163
0,21458824023698078
0,4796476381772557
0,1583056385856277
0,25463660019810547
0,37577075318880043
0,041346480209806726
-0,04510964204009878
0,3496270458485156
0,15861810288298744
-0,26779696675655884
0,21120079923761817
0,23143902018731163
-0,21900576049462184
-0,186196652886082
-0,426632225466193
0,2548742131893397
0,7106866361733115
0,38442495949723887
-0,22372217952241102
0,056469044113546286
0,3495015772237196
-0,41930497044039305
0,4721599096661693
-0,6174277557951814
0,028717691084355016
-0,01658164127673734
0,4385287264173768
0,12804627399806542
0,3902985542100736
0,1811932716551001
-0,3070120824050502
-0,39162212475457864
0,18210059378572338
-0,11499194413851734
-0,4791585947391533
0,06912931328979012
0,6914152003503616
-0,26241712270938894
0,2701338273685132
0,0847900980428352
-0,4046715085778016
-0,036050533188454977
0,4301359885421067
-0,17412435424020584
0,3178188657724499
0,05329253168630037
0,12919020189988148
0,0700979588026886
0,14204086025661186
0,5847423590277578
-0,3229740237735923
-0,42528275999415605
0,2038610052293973
-0,6527093635053198
0,04574587876317308
-0,7217277168486754
-0,3155498217046188
0,39248696847037573
-0,014454314571634855
-0,2821130040995423
-0,27529667115687445
0,4620789379339492
0,10088070508809635
-0,1714870701203572
0,025293481962115706
-0,08320507187635115
0,43895370609137024
0,2652038335455463
-0,2058408117420644
-0,04459209787452735
0,1291133423927658
-0,5306381576893584
0,39352079862886596
0,5442426036404221
0,17459882924822545
0,3852399079327843
-0,4178197167132382
0,1596682027255379
-0,10933010111279969
-0,4741888703317608
0,4875211254505323
-0,4437809673503417
0,36994560823565575
0,356511496619999
0,14811537355879334
-0,34130517748006917
0,21356124233896204
0,13280420111641256
-0,3021457653439351
-0,003556414977937019
-0,43662261285502185
-0,04335058749139492
0,49788276310156654
0,46744085786371586
-0,29416850431809227
0,4791265328469035
0,48521957665361104
0,022278155568828763
-0,1580858337179636
-0,2956174307269647
0,32104695459286064
0,06264550246301931
0,4588912818547461
0,3838915724446133
0,0663745267394634
0,23353421817949474
-0,44526811116372467
-0,04993975280980987
0,20518754313188417
0,43593084938048104
0,14527931605971234
0,3493295618429801
0,26845574075665285
0,15341900238128944
-0,486057425860919
-0,1694671595984458
0,42876720290142983
0,3989729933971789
0,1820937334520545
0,4712343733383875
-0,33844579547455117
0,3977243579263934
0,0779818928479662
-0,1414385297675418
-0,4492713054194427
0,08558785624593071
0,4457987901702523
-0,1335483758781081
0,3752474204313572
0,38874802403487185
0,008111459045440056
0,23006070569783613
-0,4358823931616867
0,1295591912251162
-0,130541018460283
-0,3613162055815974
0,3490259206330624
0,3518384118416322
0,134650949527177
0,18249144202107884
-0,3008913509020053
-0,19363055119675088
-0,3055645780062689
-0,38589149957929203
0,1607048317429918
-0,33864352452390967
-0,2907336351277398
-0,016158056283065436
0,07527670472408056
0,05477180138493615
-0,21771286247427735
-0,2579979106929151
-0,1354894214407777
-0,2079991065301731
-0,30331373097953507
0,13453525955116716
0,2899307448396656
-0,5172996713250756
0,13206928843124752
-0,4863259202968794
0,2655378795294612
0,42951338473194184
-0,2591189005929316
-0,015675953397978264
0,3228968416023519
0,12326060171034516
-0,2943468621131348
0,21438855947608393
0,28619375625219085
0,07719005285129994
-0,3031469772626508
0,34456837879759955
0,37281364563772107
0,11447496620264734
-0,014722030626063093
-0,43814279243624493
-0,024052221393800595
-0,297878401678727
0,36260816243016397
0,19643731021357894
-0,375397147575744
-0,357399018757507
-0,11978987137837468
-0,41092662862851287
-0,09162349882225555
-0,07938942333957454
-0,1012405153934056
-0,051613102771765645
0,023501499970117263
-0,35366008573852714
-0,18278368480908744
-0,10445266745966812
0,2108479622378754
-0,33406486429122
0,21586754975358505
0,2519969182069084
0,37000029584380767
-0,3234746127157446
-0,18762305462581738
0,1877341621536539
0,06794475019706905
-0,2296490022729762
0,13651998714827582
0,335787422125116
0,3440785519020338
0,0705542976286971
0,4309934335915679
0,06838603383048238
-0,4296524539755794
0,12632304742712394
-0,17293944228157573
-0,02365674472017792
-0,31276629400772316
0,29075348458647
-0,03904243928655211
0,2340175596788962
-0,6446012773751678
0,1579612278761286
-0,05236517202936074
0,019840872280461223
-0,4927916865127382
-0,39564133477556707
-0,06605111126136609
-0,4802314948583317
-0,19146267832416183
-0,44232420283797536
0,0517206432742591
-0,14359350972449364
-0,26181976410949115
-0,29120006433970025
0,3857911793801862
-0,49360226726250356
0,07745274979367714
0,3871870850728126
0,14936653638886244
0,5208130950237602
-0,4168808039607497
-0,4465631499032579
-0,21330753504408287
0,049713486335665594
0,057749045324453976
0,37796429064847614
-0,21195474637339295
-0,02338739290424136
0,25907575979841163
-0,2587656397459281
0,7894963137485231
0,09472011368370857
-0,4268528418988921
0,03067636569114352
-0,6391658199786382
0,21027743774502483
-0,246494803603808
0,13477971846653336
-0,3526708566062545
0,0629914519186654
-0,22225518962081797
0,26414009789292825
0,42110640629951707
-0,19148509611976253
-0,19300873134222987
-0,2365222408925253
-0,2057334420573309
-0,2743536364037577
-0,4082712083563388
0,5888529114885724
-0,23883505097117913
0,45307972441396627
-0,6594666103189639
0,11426357652250328
0,33579536736257
0,015238336674613967
-0,26358098766840027
0,370493378593654
-0,0705192603788268
-0,24973970925987343
0,5323964828376506
0,050003808884058754
0,1939539318627917
-0,10180312567725984
-0,4175234362835279
0,4354176074268116
-0,5516265268155406
-0,09740305602446518
0,1603815657432198
-0,04213151409462693
0,36018182786205183
-0,4826178411855369
-0,10383029247734968
-0,1492130412777608
0,12882635595312056
-0,591432509237602
0,41157838646406286
0,5564001046725404
0,21399217870879006
-0,03731230070312232
0,10301691087936499
0,46010798262080255
0,03761221941751064
0,3006912353240584
0,03562102328325431
-0,008304474461126869
0,03801085132837008
0,12276978268030544
0,5129770359781621
0,5351067378359481
0,3239794904077009
-0,5714986980698975
-0,32241029483882133
0,3360802944640417
0,5206970054240667
-0,2768234695194377
0,0521688305748637
0,3579319655477007
-0,3729520676775902
0,15888951687322753
-0,45694397151321303
0,15772076655345912
-0,23265897951752967
-0,5484631976899706
0,14133989783157652
-0,191790225359995
0,28371562529513156
-0,7108614862698807
-0,10483611043611053
0,3700047185539069
0,04808612928583488
0,09346209618334259
0,10642709817554842
-0,19614344536667858
0,48324051765650483
-0,19001915130567099
0,14907888949362086
-0,5578225273058172
-0,1258114711528684
-0,3034583530261994
0,04564915712084688
0,581978935183256
0,43045747172187215
-0,9093557549472892
-0,37361765841684963
0,337461777810723
0,1603576804724154
0,021643527063936727
0,05437133239246646
-0,2324184252774306
-0,005774867261872069
0,046933898371125105
-0,06335085098407625
-0,1664782994135048
0,2605931749216433
-0,22149999957273483
-0,17042386957437156
-0,3187267796053376
0,1092648518177456
-0,5450295580950794
-0,45345948355380383
0,46100484959613586
0,10143391013721226
-0,14370324063401496
0,6542275591236766
-0,2168258386816027
-0,10444088681555334
0,15695600321458483
0,21525249473225394
0,046033115427914016
-0,45213755895198954
-0,26011750626884855
-0,3043888826422453
0,13092838993656955
-0,2580112742945577
-0,8855717064362251
-0,2822003665872657
0,2734252944953305
0,16219786959966367
0,30860562666502755
0,4576774570719154
-0,5067748528411588
0,012179897249182095
0,3839023689417628
0,2747936399345792
-0,14874070894729569
-0,08385628800407015
-0,5571139257896963
-0,2157019722161941
-0,20019658237828905
-0,48829063715014354
-0,4038927307961054
-0,0382286543033729
0,11956166216468307
-0,06533553958072058
0,1202283329819475
-0,09242456205049135
0,019192238797723957
0,24051594474727356
0,05151171122357985
-0,374448167396401
0,017183497593166636
0,046503783187238946
-0,2289341529107399
-0,15191117494946194
0,02526057375254622
-0,4157266569120835
-0,23632422855385937
0,27181821847561966
0,41198562347726064
0,3600460531091203
0,07711115275458935
0,36817639482636055
0,4509124776758862
0,046434310812176846
0,49413483265023367
0,1411649935750541
0,12254144046146376
-0,24009621908913945
0,059241296527436184
-0,22071693886956867
0,17039189879624905
-0,7254728455112105
-0,8124002275374649
0,3284113614508957
0,25618657276629625
-0,044286337347384984
0,1691238076931288
-0,14011265199969494
0,3047545849289893
-0,28530605357213423
-0,11950159828476274
0,40836324484577496
0,4687816984989062
-0,44651755368047324
-0,5498863020307976
0,32014427548265606
0,009397059098568665
-0,1069235067227458
-0,5400358573954122
0,5251804445344532
0,3825536718014794
0,18137770810055473
0,48936570961030584
-0,39368355370710423
0,047919005698074835
0,2741604978210489
0,37050852785165245
0,09278467464071738
-0,09929974730793187
-0,036339568244950424
0,10151629164452929
0,14592126080952217
-0,13566808064257257
-0,39874887050771946
-0,38524387464168064
0,4158860143289125
-0,08852235016771885
0,4713733960746131
0,13092489104687643
-0,03398566951871131
-0,1834497479671867
-0,2728543092693367
-0,07982093963556292
-0,38129865161652415
0,583697217597238
0,12562125278770794
-0,23651572366750304
0,2664358310027472
0,0686222349043097
0,15266061935864322
-0,265929650231563
-0,10976783427311478
0,3828302871907997
0,5664098423999978
0,4935601157725067
-0,25917288065100114
0,43737829459428695
0,2696808514095612
-0,3512973605733231
-0,06565064648879436
0,07018537390634859
-0,17563444757715055
-0,05519266843651801
-0,22562285816673622
-0,187493976485861
0,04271695708017388
-0,2768485232740993
0,21116530606242545
-0,4756979457485895
0,14670305640216838
0,09721655718902343
0,34205620567248424
0,1352037886131561
0,39085647002602575
0,3238273095672474
-0,28032792373455606
0,6322498587887476
-0,5031459863270474
-0,0031329176698988584
-0,10702612606562256
-0,15325308628731135
-0,373593631093107
-0,13188570222336787
0,7185543467621263
-0,28259737387470807
0,1161506516753886
-0,09213558031283721
-0,006021812657582876
0,00587280614018758
0,18090456183445408
0,09118179796980284
-0,3402371422852116
0,2856274638224922
-0,28345850084793767
0,30988134054225425
0,13674407396417157
-0,19067761726713947
-0,04471293443836616
-0,16904827192558333
0,14461659117117456
-0,13286547242226387
-0,039860493965927224
-0,374667092854758
-0,013046666336582632
0,35546808637677413
-0,19076161174193945
0,12543270350742672
0,36237051791468444
-0,3075907825959695
0,1936137778363633
0,48567330480538806
0,08857213574423047
0,23986612344387118
-0,17898840154717907
-0,04559330062673783
0,05184591538812158
-0,5077096289093278
-0,03831723858749578
-0,4770998966415004
0,14201199869284717
0,08237834450924147
0,2687890734251764
-0,20697532975795838
0,2921249077904908
-0,4886956404853472
-0,2970420287755696
-0,49570714335488925
-0,4643153593436024
-0,27676427412061166
0,10615392180191165
-0,45149422376307874
-0,48793451741931637
-0,2338448947139623
-0,06557332861853145
0,2793735132071654
-0,07394266048759715
0,4329460701334662
0,4936105202198685
0,05457742970003772
0,3438181996996732
-0,45124726300140366
0,3780999303157017
-0,33621922600212156
-0,4017133911786396
-0,13555900779158367
0,11940929587711327
0,23274179384710328
-0,22681197788448185
0,08790962454081817
0,15809951319973467
0,0702294290048587
-0,45480790457484976
0,4662083684733679
-0,1291112652811208
-0,15873243026634146
0,1689745251411641
-0,1007772611164301
-0,10204520549884862
-0,21552439234107107
0,43249035122929896
0,16762502063919296
0,3654679515180388
-0,49814502302101815
-0,39656851722456427
-0,3828367982670452
-0,2378323157912648
0,17882100368896076
-0,1851725753874873
0,08902165714968795
-0,2226473713068585
0,3942982942858475
-0,09984538054738157
-0,4436778728670056
0,1901941115885415
0,37615185721582534
-0,48828213930934566
0,2641962789562957
0,39190163852409093
-0,25270855918732343
0,20860584091215154
0,2998634602173778
0,05730763600548698
-0,4145931248335627
0,16283270348358547
0,17439116488326256
0,23475422368464563
-0,23810668957743247
0,043359522243661346
-0,03764157731068332
-0,07431197280282509
-0,27881398878313
-0,46491717605494315
0,22859843077280304
-0,11127094724695831
0,3576096698256393
0,0052065247673924436
-0,11364029113316707
0,5275630308055502
-0,31492814759823057
-0,33002627925307876
0,0654080112128504
-0,13052792807588595
0,1313820493940806
-0,4956458984597337
-0,13643511993739466
0,2265923821269261
0,05230107819173153
-0,4823574670672331
-0,1841192276447058
0,46419027689478237
-0,013324827001552027
0,3513257783803863
-0,1339128236667526
-0,211074156688078
0,5206219894364613
-0,29980566969419137
-0,08011360450266823
0,264535826479467
0,2000940604111664
0,3941634096107707
0,19542460970179634
-0,3163957858690078
-0,24207244665611377
0,34898167717418804
-0,03359585154459151
-0,045683082393117344
-0,28372472348385497
0,404532670826604
-0,20312897925059914
0,4342187926712652
0,36869093383518514
-0,4696375215031518
0,5666240021870425
-0,27122545396755254
-0,46484330205542834
-0,07684778403003616
0,39662478513904925
-0,17302065052056378
0,2908216268125847
0,08140075613710322
-0,05206896960539961
0,09184240752221444
-0,30350751173024043
0,03005389712713263
0,3174710536482569
0,3361350622875855
-0,01665111279512015
-0,4014372126129845
0,26078779177525263
-0,08032508159086531
0,16077054114797806
0,1296214273465568
0,10253275540298588
0,24073444422600523
0,04557691870061586
0,15262452791634892
-0,2599082211394265
-0,20703117921959566
0,18367713332346802
-0,3005845732512606
0,29603401890516834
0,5241642727136637
0,27085581271012876
-0,16745557754537108
0,5833798686397357
-0,476436021192595
0,2279355806152586
-0,16632043816710285
-0,31359349946916354
0,39503596120938056
-0,2857217386710836
-0,19634431950653955
-0,4070835166085369
-0,2693800382022886
-0,4028306719533507
0,2865230428122998
-0,07791932835181106
0,40863281050546424
0,07380238268105752
-0,02203977842544166
0,3465250609493826
-0,08859183559122245
0,2921298459708011
-0,5464830924762041
0,32474331072230667
0,5117978747227814
-0,2191754721403537
0,5782765596172719
-0,2878842042925759
0,31318386575347135
0,13389582008164216
-0,11510664120583435
0,43755258034970107
0,11157668092604296
-0,23998405610737575
-0,4203967302977117
0,22777792056201818
-0,09154589804192521
-0,24117448010583897
-0,11176789821807748
-0,1339573260245094
-0,21216886753162562
0,3837034612610475
0,31032773742984776
-0,12721546401664038
0,10762590500864609
-0,770641372294926
-0,12145355029145528
0,37029135826793774
0,40012687649602097
-0,0922735466002701
0,17234415619426371
0,28742125698678156
-0,5540196561440256
0,5727031187600679
-0,21057416595078005
0,3010686055434825
-0,18567515784296468
0,05267059236836524
0,013004666975210272
-0,22475176348304945
0,13582566224424442
-0,6326960109630794
0,6075997110885598
-0,0037855410744115792
0,5816258088634146
-0,4240359802025882
-0,14546616148285366
0,005950375660302312
-0,3219459453315808
-0,1812358827827863
-0,1690440720688772
0,41118956913112226
-0,3270196705721663
0,20547619677798812
0,5384346362922027
-0,3627660403273487
0,3462834592146575
-0,4637230100178781
0,04317957197895715
0,24742647554334282
0,04098668743808022
-0,3497822459725161
-0,2452187277327424
-0,21161798192653697
0,04554839597446614
0,4506020347754376
0,024670186636087724
-0,5772308146264186
-0,18404775051759048
0,38210836807395837
0,051289844039965504
-0,0971733096438167
-0,00045230131751200703
-0,5287787462811618
-0,6270476929083795
0,6103612311557127
-0,22836387334227312
-0,5113945772667472
0,10722128895550469
0,11208447553749709
0,1596184007914426
0,33744804905902676
-0,344060173602556
-0,005675822920592442
0,21880928099582692
-0,2561662114461957
0,019806302787403845
-0,3972487274000115
0,26869720294369887
-1,0205898035133545
-0,5680126922376707
0,5380752274767144
0,5404546937069984
0,49209043276156683
-0,3228761547338091
-0,3134447267817892
0,6248947569837461
0,05179126120918386
-0,300600100938882
-0,13413632867487174
-0,2502117875766426
-0,6631097512189535
-0,7853100976949753
-0,43052239547239335
0,04216980278369101
-0,8880757463742175
-0,7356304258674492
0,2508859404748627
0,17946706899539888
0,49459287065962515
0,1584721907750743
0,329495305289643
0,40254494353613773
0,3375040494607015
0,560450806660351
-0,2526677241982023
-0,3634503517315251
0,24536311901013524
-0,7659261817317057
-0,18663241338131062
-0,2322678883976621
-0,09958382419772753
-0,16957280176762968
0,5709758420762254
0,36457455837030756
-0,10809119840785929
0,2576416771579784
-0,2929975167316355
-0,13387655986518962
-0,16431566572950446
-0,23760693528626936
-0,33047385870893387
-0,6524192441833288
-0,15621166098849218
-0,49928871917525797
-0,1156821723390773
-0,14527646020823076
0,32855576226508376
0,07113337255277288
0,05626749902786968
0,1630047069313887
0,2101118517579981
0,43694386932608426
0,16613385333580985
-0,01528388865862926
0,20583166872598266
-0,4315738803088844
-0,35915805529066386
-0,2844324557418842
-0,24618789961116994
-0,4770411120439729
-0,010812727052161936
-1,0923907138057922
0,037915867370079015
0,06106813476089176
0,5004906263170066
0,0046117767672758745
-0,05629202734620299
-0,04856358949319474
0,28171231471427166
-0,0833135475744624
0,07045261763106968
-0,2809797706274697
-0,08458652885811638
-0,2428785191883368
0,12888510217906776
-0,4888064002616344
-0,47920592491294706
-0,2466423318480274
0,05084263983344431
0,5225434461479715
0,4227389852291875
0,39741045281711807
0,46777493418224675
0,3834603379288594
-0,1008582326050296
-0,3054421298574559
0,3353861079168603
-0,27360869901371787
-0,4889458756307038
0,05323841910813498
0,2473593707307578
-0,04502710872549177
-0,08928687289186994
-0,5674255804910296
0,2615170878012938
0,21430519624841232
0,625726872073159
-0,08012747868126742
0,4160033219267501
-0,0211108474952755
0,4467552551454105
0,30233407927399564
-0,31202869693146584
-0,4640246473804173
0,004743492149012908
0,15822717384085389
-0,09761842232211657
-0,5466544868068787
0,34273015480282837
-0,5627747016558834
0,1368580772786198
0,1385040366921735
0,00027147260966776395
-0,04131868845525516
0,31449322799462376
-0,12485889033718076
-0,08506515588159684
0,09507337706912151
0,0022929496618227458
-0,38205578249118677
0,17542061886104948
-0,5476080038719734
0,014518073911777715
0,22689665346358057
-0,09129034810369056
-0,06116820105299597
-0,4415875447665169
0,6364387579755251
-0,20938967776595785
0,6046294676576086
0,3116111655731726
0,10123789046408493
0,46776517534193596
-0,005113579142705795
-0,6322029967392532
-0,43372893415824404
0,4293676893480732
0,13618224216440442
-0,3611445652450172
0,07419500993056344
-0,11103070218914429
-0,21602824317771507
-0,2725076745293597
-0,16815844239435332
0,35171571983974614
0,3087796991544123
-0,40751623461359393
0,004597416817496531
0,14296857698629062
-0,10038798811342242
0,2900473104851868
0,23893351976060712
-0,05669954355709656
-0,15907408845712118
-0,3190734656419403
-0,0971557385087166
0,04536817494641535
0,007832600842783786
0,36907965700450635
0,5233151937836513
-0,23371244297831437
0,7790802915581561
0,1425452141068389
0,36678098120597863
0,01833188276793009
0,5999233850727399
-0,3087841398384676
0,11029728595902942
0,2828442357238886
0,01949237626397089
0,39754185759327837
0,19560775770287137
0,3964483387947272
0,055782883309238446
0,07684496182605245
0,14993262872797192
0,23348176431388806
0,2585484519345234
-0,401745697703071
0,515836507152425
0,3367289638061368
-0,005597614544049258
-0,3714141393057668
-0,24967910440172278
0,12348297413770452
-0,4962242701567429
0,4376297719480254
-0,1297130061346422
-0,2692807309952831
-0,35874459995432384
0,0211194282586976
-0,04328737357252285
-0,056619240915729445
-0,3605345956542212
-0,2137299318256077
-0,1600421363170695
0,47057438466969537
-0,4112777991721137
-0,12080211470824737
-0,1348962347828875
0,38164081480789713
-0,2398215058837907
-0,39175717562649215
0,11847788197601708
0,43303618183772
-0,38825713415850266
-0,0954330675475592
0,334867237689699
0,3963385904910466
-0,34909420642622985
-0,33198158077159473
0,08356682524738362
-0,42594172357031074
0,3926204550970355
-0,4820891418970402
-0,13794033505462722
-0,33562320537536205
-0,46754843067027424
-0,08847857230318576
0,011801397866455
-0,10764436083834837
-0,015716498209616802
0,18457056378325654
-0,13279922317455053
-0,10041655649385234
0,38634592596100426
-0,1367251534341039
-0,3853442343504256
-0,21747893913658267
-0,11535954980611517
0,4682356694013627
0,44851248594739057
-0,013294873454091702
-0,18645267907546165
-0,2794217551195085
-0,1064883247542488
0,4908789108789229
-0,07996354284966611
0,009370080229127598
0,08524803643033405
0,42578984427873573
0,00709319214450551
0,45844630281270293
-0,4424321104270873
-0,31702619578673896
-0,17183757051340393
0,04189180617237693
0,4409707811713995
0,1274276973503961
-0,41550470295058545
0,28036233503266167
-0,1415671398363098
-0,3451162324463428
0,1798263242277754
0,46551455877760445
0,1332884455588654
-0,3708181855125229
0,27009527150984897
-0,4298641954754755
0,07278874258294214
-0,32977383796044446
-0,3941447437648299
0,14646572630684052
0,3884809243715063
-0,3376613587819252
-0,03717740827348382
0,21972626860378164
-0,0944272728172562
0,021163301225931425
0,39807811644337393
-0,16694150379857367
0,21597988457247067
0,44720512085979613
0,10230291809053287
-0,36118329854311443
-0,19057169648740593
0,20446065238772496
0,2795886748316563
-0,3618517095271736
-0,294199681901695
0,03476992843113942
0,3359402387056351
0,3181059755380271
-0,45581850481699365
0,2206496324546314
0,14166901900872386
-0,2909727496890566
-0,1758984337080475
-0,1671008883407668
-0,3181358582578186
-0,09498244128943183
-0,13817733880221617
0,5492434377887422
-0,4274881309530148
-0,4019389231915766
0,19939943940680505
0,1492923354426447
-0,30489166158287995
0,31067318609175176
-0,09468154007251857
-0,32131463793824744
0,08899934121744822
0,0941228427505549
-0,1577751570906875
-0,21147528624478268
0,3485768267529768
-0,3755117429451614
-0,5710476187728369
0,5397382641079156
-0,2354282269597073
0,36201289852423224
-0,3082303680761203
-0,10077672155993057
0,27304730247036263
-0,10439313505340303
-0,3828223720360058
0,004372583956150767
0,06291634810858263
-0,06053714278798687
-0,4375854382606215
-0,33180762570041655
0,5231399952228609
-0,15762472449362439
0,11620673874690111
0,31946115934424096
-0,4890320208185406
0,2609427875602122
-0,033914866772259376
0,3262141627549274
-0,20025230262862756
0,7944123750613808
0,5313123982422299
0,15903654404693154
0,27560335526998025
-0,14281633947453345
0,2222896762929528
-0,3968041712383248
0,061550147746518444
-0,7970589184740291
0,34168392545097737
-0,06129596569115285
-0,4295170180615904
-0,2512187793527456
0,002336248501766659
0,3498751653750196
-0,23662032848920328
0,5197036173366881
0,653453494165401
0,4129205940103453
-0,10851929908664429
-0,25557856972869675
-0,27007451749391737
0,3484424161635641
-0,1566157587419827
-0,4685846922603927
-0,07889753310471924
-0,2516258006814289
0,016279618270310936
-0,23684314774974177
-0,1986188337156627
-0,0541291584660827
0,18699797741466545
0,2502378929374305
0,5029089021112988
-0,3141581600802383
0,10760130976011574
-0,5173706443722815
0,3003941869587899
-0,3854475109584747
0,32597197377989195
-0,05299253515088602
-0,39086236089513615
0,22554446021936808
-0,4298875879636133
0,12663709492725508
-0,24394578276846127
-0,011035290019253803
0,26377515947803115
0,7606765985299531
0,719218819610343
-0,36053764786170905
0,2826035248535183
0,0430487230651186
-0,22856320796291504
-0,16887945131030233
0,0015290315798575087
-0,8949350405935068
0,017543172780927176
0,1944054151857536
-0,26589528939763607
-0,2525262813169577
-0,32438559711607107
0,29810559649747687
-0,3664386849283763
0,22624075398307741
0,654594664449053
-0,31681130770733695
0,4669057614167643
0,2708214576838659
-0,08966265723402099
0,12032170658476637
0,1310092532213765
-0,6233097985364302
0,021016977707353748
0,19094453810774462
0,20469303190299465
0,4072982183356332
0,0640480312211419
0,15369697683080064
-0,017085308787881004
0,6384033311490992
0,07047945411088859
-0,6370289367674642
0,3726313318398815
-0,11208082228279734
0,1943857500971426
-0,3560370744803185
0,577403393543829
-0,8193996707156561
-0,5142399744833491
0,5018359760646467
0,05697085117553408
-0,4448448698566267
-0,2938075482336285
-0,07718177407366184
-0,39306890679304773
0,3968638572269378
-0,31850830215555676
-0,07832625537502928
0,1625731138161754
-0,23030027057881194
0,1319508194762585
0,4147182523626989
0,4497883888478429
-0,4634561029494542
-0,3404162195122987
-0,2110595323056394
0,5095677604114079
-0,17630912124737216
0,24840419384251308
-0,5394726179752831
0,31825748643954094
0,03199019918210669
-0,9092127535318625
-0,45328641241867734
-0,29530161705885327
-0,4817497448840082
-0,6262104557948414
-0,11122207070450044
0,02228880296209158
-0,0184689974193926
0,1519621914744947
-0,16209054176050466
0,43647030297799283
0,19652085952606818
0,3746231003046833
-0,18012533212050202
-0,07309093607587504
-0,1218691702016205
-0,32309052820523687
-0,24652846212134916
-0,3451086116512039
-0,25718729090408804
-0,6771465349035027
-0,08556701320990415
-0,1076699274138669
0,1335892372611826
-0,0940563440178161
0,5415297475002807
0,01742371766928143
0,277555107779145
0,0209523281175328
-0,628782456292543
-0,7183754695413109
-0,09095625169644636
-0,9886733397289009
0,013463155285498393
-0,6877078603281257
0,49449621932535165
0,1580900948179002
0,2791090590330974
0,0962780837753856
0,9086030423818713
0,2973246291652981
0,06088182449933372
0,40640971614963767
0,5978328494409482
0,236322869606538
-0,11138386981356119
-0,5015137152956991
0,16389871471130135
-0,5497508362132073
-0,24762907431697112
-0,4858509053153854
-0,3157164855289724
0,19972584766727272
0,36488068165361953
0,4613715257482199
0,6471096164393022
0,033793523847468435
0,266505852291888
0,043796339981991096
-0,1664368800423902
0,3617825588848076
0,10514200871576161
-0,45054887921879333
0,16373886656747383
-0,15649322103740598
-0,6054071686010722
-0,24707364484625258
-0,2054081255399806
-0,29808110396274584
0,4653965924822664
-0,0654661060215172
0,5479888417300237
-0,3441372254603056
0,09784856971273563
0,22766964496827088
0,13812884700753278
0,08665300939913266
-0,5737445489129838
-0,083894725992137
-0,3499960558070061
-0,3363613123361665
-0,27929882342273704
-0,3533385458600716
0,4046042405050901
0,05936268748820174
-0,26443400657474575
-0,06438171157042716
0,24629963585379333
0,0699673634577501
0,4347007750676309
-0,4133689636364775
-0,2402827857778673
-0,02051741851574762
-0,17796539975864625
0,2812612268659586
0,49573941734461985
-0,14382346217834874
0,1581065198830751
-0,3006646323194896
-0,35062395516717454
-0,007018637891110504
0,16094219590068284
0,40243325910318883
-0,07245215905177015
0,0033502696199472362
0,47594908781043854
-0,5175578455224831
0,11730784866394342
0,4152879905849188
-0,40358509612677135
-0,27538244170881954
0,630251317889917
0,25009227503196035
-0,5872759122507395
-0,25816842781849414
-0,1822938201697323
-0,1334327808590038
0,039382592471193315
0,3426981259828453
0,7045097642746887
-0,021317941744566235
-0,11430643241841833
0,0871065716715029
-0,006528760054221315
-0,4527994802232229
-0,04075058309463212
-0,46174895650486586
0,0914393990733438
0,4022424532349577
0,39923757987222985
-0,27473731118843187
-0,1927584741366486
0,5685363925777686
0,0637328741508775
0,25193164834830034
0,31687573923912593
0,04323478434265554
-0,21408373391398394
-0,4253084275218665
-0,13494015374903406
-0,07910443469059164
-0,08958786254477126
0,4014719437277913
-0,14780266856978672
0,5532338326918007
0,38290901246621795
0,1856918275088066
0,3462893069862206
0,040640534936189056
-0,2478388971870476
0,888311578247582
-0,3095263134957462
0,1620307631754876
-0,03522316321697874
0,5542578703129407
-0,23390245900536322
-0,13857760934855484
0,6354929792792539
-0,2217014133984144
-0,03509073277146994
0,46527847623093094
0,1415973722550913
-0,5079286719089482
-0,49812734122457236
0,031623280065843445
0,39953280439637506
0,006039164609076295
0,06365541932913105
0,19663687336540445
0,5664431854801887
-0,2633427177897318
0,37261493556857284
-0,015822562738900554
0,3596266785250057
-0,007612883932127411
-0,09052406755872161
-0,053260163179724464
-0,288118903587789
0,24661760991934842
-0,29175643797546064
0,3277974500807405
0,12073594015977297
0,13685866308966035
-0,1577112197632959
-0,043020101993474086
0,15673850951301752
-0,20039131645624034
-0,06451070284079062
-0,11406981635257714
-0,22286197169578936
-0,46536618223766435
-0,16272840544781486
-0,41512977537621565
0,029200081936645444
-0,20987923450681673
0,1689311537048662
-0,4468695563353419
-0,4615527575726319
0,47624978870444856
0,4153025787610252
0,16398221619928394
0,34598294730193274
0,3674976633973018
-0,3918601988742998
-0,2102338231464989
-0,10693263302429112
-0,19541531279961188
-0,24890796253944517
0,031115825111702196
-0,30638265219770117
-0,47984424916449886
-0,40135881930341755
-0,34046051924641846
-0,44871828921047546
0,24199576959234187
0,3988063590081825
0,16651444336519852
0,21823583350359513
0,4867598022780782
0,07531613397492389
-0,29234898683844607
-0,07843762930360078
0,3741662074862192
0,24592454903933228
-0,28569959722683946
-0,056190958595835325
0,04883747441366364
-0,004847923672595448
-0,49410299703337024
-0,15316191638072071
-0,24022371339697438
-0,3997015782340221
0,0250770036054977
-0,45338815594555454
-0,03494191707926948
-0,14369890723716996
0,15592624046263912
0,4739237110419403
-0,34074692410117235
0,3214690755691788
-0,4656587735338388
-0,28987432564809124
-0,02596381012572177
0,3645297733248464
0,022430945190038732
0,36840298710460634
0,2990917971976348
0,46074215872041113
0,38347131147668684
-0,3398999849981051
0,29014976775308404
0,23295258854241652
0,23138391263182415
0,0421668529532465
0,3437982689925838
-0,18359691854652038
0,45997698732689934
0,39868677003428327
-0,2144424667346994
-0,21466188731070257
-0,40513201889525746
